nep4 5 B N Si C Cu 
cutoff 5 3.5 50 21
n_max 4 4
basis_size 8 8
l_max 4 0 0
ANN 50 0
  6.6152388e-01
  1.0095146e-01
 -6.8909919e-01
  1.0624951e-03
  2.6763943e-01
  7.3335215e-04
 -1.7496555e-03
 -1.2419320e-01
  3.1195297e-03
  3.6307967e-01
  1.0272444e+00
  4.7593102e-01
 -2.0443194e-01
  3.4296641e-01
  1.1739843e+00
 -8.3045834e-01
  4.8354283e-01
  4.6676319e-02
  1.4830990e-02
  7.7620417e-01
  9.0184420e-01
  3.6808096e-02
 -8.2107924e-04
  1.6018026e-01
  6.8182486e-01
 -8.4347138e-04
  8.8161055e-04
 -4.9736849e-03
  4.8556677e-03
  6.6364955e-05
  6.6708550e-02
  2.8445015e-03
  9.9250081e-04
  5.2478099e-03
  2.5401306e-03
 -7.4691325e-03
  1.1460716e-03
 -1.2953877e-03
  8.8495020e-05
  9.3104325e-02
 -4.5406394e-02
  2.3370676e-04
  2.9681581e-03
  5.9733744e-04
  3.6920356e-03
 -2.5441553e-03
  7.0281810e-04
 -1.9104350e-03
  3.3537985e-04
  2.2126990e-03
 -1.5267645e-03
 -1.3668946e-03
 -1.9988841e-03
  9.1141282e-04
 -6.0041517e-04
 -1.7283229e-03
 -2.0925759e-03
  5.5169669e-04
 -1.5083875e-03
  5.2217562e-03
  4.7799206e-04
 -5.2675902e-04
 -2.1098971e-03
 -1.8637237e-04
 -1.3062655e-04
  7.2263932e-04
 -1.0814503e-03
  7.0057792e-04
 -2.7151953e-03
 -5.2434852e-04
  1.1898258e-03
  5.5429089e-05
  7.2951836e-04
  7.3147006e-05
 -3.4418996e-04
 -1.2653768e-03
 -1.0552354e-04
 -3.8933796e-03
 -2.2470858e-03
  4.6541652e-04
 -2.7973840e-02
 -2.0405785e-03
 -2.1393290e-03
  5.1564834e-04
 -1.8883293e-03
  1.0504423e-03
  1.6182555e-03
 -2.1830969e-03
  5.2697025e-04
 -3.5503259e-04
  1.9901406e-03
  3.9324394e-04
  5.9506954e-03
 -5.3670199e-04
  1.4551453e-03
 -6.3255563e-04
  4.1120141e-04
  9.3177730e-01
  1.3173013e-03
 -2.9217985e-03
  2.6790757e-04
 -1.7602341e-03
  1.0580813e-03
  1.5902857e-03
 -5.3916788e-03
 -6.6859130e-04
 -2.1511824e-03
 -3.2644994e-03
 -1.6931110e-03
  2.2203592e-03
 -2.7560196e-03
 -9.3756651e-04
 -1.0324976e-03
 -1.1100407e-03
  1.4785505e-03
 -1.0237026e-04
  2.1908816e-03
  9.9335297e-04
 -1.1971304e-04
 -2.6358807e-04
  5.0363858e-04
 -1.1298613e-03
  8.1190020e-03
 -3.2809426e-04
  7.4647274e-04
  3.8424030e-02
  1.1466481e-03
  5.3842314e-02
  6.1315542e-01
  1.5595446e-03
 -5.2213587e-02
 -5.5288849e-04
 -1.7885177e-03
 -6.4217169e-03
 -2.6701554e-03
 -1.0712163e-03
  6.3557136e-03
  1.1703605e-01
 -3.9695865e-03
 -1.8990529e-01
 -1.1730223e-04
  3.1405823e-05
  5.3250324e-04
 -4.7263736e-03
 -2.2207816e+00
  1.7535611e-03
  1.1729104e-03
  3.8690742e-03
  1.9612592e-03
 -2.4119570e-04
  4.6877377e-04
  2.6924265e-05
  4.3449944e-04
 -1.0482608e-03
  5.9335917e-04
 -1.0772826e-03
  1.4577740e-03
 -3.4871187e-02
  2.4530810e-04
 -3.4869622e-02
  1.3911991e-03
 -1.1796045e-04
  6.3861994e-04
  3.4982018e-04
 -8.6389418e-04
 -2.4070035e-01
  2.4679612e-04
 -2.3651125e-03
 -2.6662135e-05
 -2.2521608e-03
  1.6477859e-01
 -1.8036087e-03
 -1.6566414e-03
  2.4509168e-04
 -3.7053174e-03
  3.4496383e-04
 -2.5959474e-03
 -2.6465001e-04
  1.2096850e-03
 -2.5930298e-03
 -1.0552468e-04
 -3.7272371e-04
 -1.1168958e-03
 -4.3181345e-01
  1.7412246e-04
  1.1401110e-01
 -2.5584754e-03
 -1.8671477e-04
  1.4678384e-03
  6.8757060e-04
  1.1596586e-04
 -3.0180612e-03
 -1.1534333e-03
  8.1211538e-04
 -2.1964798e-04
 -3.9634717e-04
 -1.2213195e-05
 -1.7057015e-03
  1.8357256e-03
 -2.7142770e-03
  6.5159979e-03
 -1.6511844e-03
 -2.0021116e-03
  2.1666555e-04
  2.0126526e-03
 -5.0702230e-03
 -3.3216990e-04
  1.7515860e-03
 -1.0100749e-03
  5.7774843e-03
 -7.8994578e-01
  2.6278567e-05
  2.1304428e-03
  1.1994625e-04
  4.5061973e-03
 -1.4767529e-03
  6.5614644e-04
 -4.8083978e-04
 -1.0801201e-03
  4.3258385e-04
 -3.4873787e-04
  2.1265338e-03
 -4.0147331e-04
 -2.0374860e-05
 -4.8096007e-04
  2.1684512e-03
 -1.1863500e-03
  1.9528684e-03
  1.1101000e-03
  1.3067124e-04
 -1.8016456e-04
  2.7498866e-03
 -1.6042811e-03
 -1.0473981e-01
  2.9102045e-03
  2.3633943e-04
  6.8879592e-05
  2.8058192e-05
 -1.5089229e-04
 -8.5402120e-05
 -2.3992950e-04
  8.9255720e-04
  4.6190975e-04
 -1.4972119e-04
 -1.6731794e-03
 -3.6585927e-03
  6.2899012e-04
 -6.6956317e-01
  7.8532536e-04
 -9.6282549e-04
 -1.2134751e-03
 -1.2338239e-05
  9.4363029e-04
 -2.3937530e-03
 -6.1268406e-04
 -2.4669085e-04
 -2.9071847e-03
  2.2097809e-04
 -2.2193566e-03
 -6.9663067e-05
 -3.2419388e-03
  3.2859286e-03
  6.4622459e-04
 -7.5019634e-05
 -5.3662871e-04
 -6.4308196e-01
  1.6712572e-03
  3.4760192e-02
 -1.2681865e-03
  4.3553218e-01
 -1.9493945e-03
  1.6500534e-03
 -5.1283400e-04
  2.1293559e-03
 -1.4392744e-03
  2.5144408e-02
 -2.0346443e-01
 -4.9547470e-01
 -9.5825315e-01
 -8.6970955e-02
 -1.1958727e+00
 -3.2518525e-03
 -1.7955950e-01
  9.0212077e-01
 -1.7135563e-01
  7.9217142e-01
  5.5526036e-01
  8.1797069e-01
 -1.5976268e-03
 -5.8143437e-01
  1.6541859e+00
  5.6779170e-01
 -2.4721885e-02
 -9.9497251e-02
 -5.2205706e-01
  1.8189781e+00
  1.0146325e+00
 -4.9810338e-01
  4.1871244e-01
  5.3941850e-03
  1.6150307e-03
  3.3297166e-03
  8.0533348e-05
  1.2959136e-03
 -3.7725205e-03
 -1.2247084e-03
 -2.3074106e-03
  8.0999825e-04
  1.4389124e-03
 -3.0289518e-04
 -2.4390630e-04
 -3.8349617e-04
 -5.4668292e-04
  1.5251914e-03
 -2.6393034e-03
  6.0413120e-04
  7.1441138e-04
  5.9227133e-04
  3.6864859e-04
  1.1893917e-03
 -1.2032330e-03
  3.2394998e+00
  5.4062065e-04
 -9.2657737e-04
  8.6847384e-04
  9.0437636e-05
 -1.9804314e-03
  1.2467079e-03
 -2.3427294e-03
  4.8059967e-04
  1.5473234e-03
 -1.3415262e-04
  1.9646029e-03
  2.1061082e-01
  1.2804525e-03
  6.9734319e-03
 -1.4808312e-03
  5.1179446e-05
 -4.2892089e-03
  1.0401272e-05
 -6.4095540e-05
 -1.3892640e-03
  1.9722567e-03
  1.3098614e-02
 -2.9533356e-04
 -2.1487635e-03
  1.8011924e-03
 -2.0894776e-04
 -4.3317897e-04
  3.3636696e-03
 -9.9382734e-05
 -1.2838148e-03
 -5.5676384e-04
  1.2059030e-03
 -3.4886619e-04
 -5.4467060e-03
 -1.5697840e-03
 -2.6502530e-04
  5.4491486e-04
 -9.1934076e-04
  3.6640479e-03
 -3.3588195e-03
  8.3373539e-04
 -4.5688110e-03
  9.8229269e-04
 -2.1706130e-03
 -1.4161658e-04
 -1.3688217e-03
  3.0139610e-04
 -1.1859803e-03
 -5.5834586e-03
  4.7762980e-04
  2.3969319e-03
 -7.8997237e-04
  2.7435035e-03
  4.6870410e-01
 -6.8787573e-04
  1.1802870e-02
 -4.3401420e-03
  8.8148966e-04
 -6.0692215e-03
 -1.0798885e-03
 -4.2438149e-03
 -6.2777150e-01
 -3.2421598e-01
 -2.2238292e-04
 -3.6431741e-04
 -2.9532079e-04
 -6.9161239e-03
 -7.4458957e-01
 -7.3597562e-01
 -1.4283986e-01
 -1.0746909e+00
 -4.8580929e-03
 -2.3083636e-01
  2.5317913e-01
  2.1082945e-02
  4.9659895e-04
  2.3494915e-03
 -4.1692507e-01
 -4.0513152e-04
 -1.4018643e-01
  7.8607950e-04
  2.4034925e-04
 -7.3145312e-04
 -4.9737675e-05
  2.7448148e-03
  2.1305388e-04
  5.8015133e-04
  4.3174536e-03
 -2.1443469e-03
 -1.4416404e-03
  3.4279597e-04
 -1.4453876e-04
  2.3632820e-03
  1.7159166e-04
  2.5098334e-04
 -1.3795559e-03
  6.3358445e-04
 -2.0404803e-03
  4.3677012e-03
 -2.6137612e-03
 -2.0842941e-04
  1.6013539e-03
  2.7703700e-04
 -3.4329567e-02
  1.7613807e-04
 -4.9246446e-04
 -1.0902029e-03
  1.5971249e-03
  1.4451714e-03
 -1.6424581e-03
  1.1121020e-04
  5.9261324e-04
  4.7322703e-04
 -8.2317751e-04
  2.1878911e-04
  9.5604116e-04
 -1.1659592e-03
  1.2793829e-03
  2.4452962e-05
  3.2338921e-03
  4.5920961e-04
  1.5254869e-03
  1.0456641e-04
  1.1019907e-03
  2.5935783e-03
  6.3247856e-04
  2.7849192e-03
 -2.8001030e-03
  4.2179176e-01
 -2.5275694e-03
  2.8018537e-01
 -3.9207655e-01
  8.5177106e-01
 -3.5094008e-01
  1.2903849e-03
 -1.9592963e-02
 -1.6398888e-02
 -1.0705374e+00
  1.1585511e-03
 -5.5064952e-01
 -5.5288799e-02
 -3.9832066e-03
 -1.4034926e+00
 -1.3511620e-02
 -1.8983936e-01
  3.5835648e-01
 -3.9506704e-04
 -1.0013785e+00
  2.3648882e-01
  3.5485616e-01
  1.1381061e-01
  3.7384284e-01
 -6.1056924e-01
 -5.5679302e-03
  1.4185466e-01
 -1.8783221e-02
  1.0746989e-01
 -1.6429372e-01
  2.6259329e-02
  1.1244444e-02
  1.5331432e-03
  3.7706743e-03
  1.5929863e-01
 -1.3619860e-03
  2.1354324e-04
 -4.3333766e-01
  2.1181740e-03
  3.3343759e-01
 -1.5955886e-01
  1.1296003e-03
  9.7563525e-04
  3.3470758e-03
  5.1178455e-02
 -5.0108647e-04
 -7.8168288e-03
 -2.5294870e-03
 -3.7368611e-01
  2.6583064e-03
  5.7296723e-01
 -4.5063803e-01
  3.9305266e-02
 -7.0161724e-01
  1.6005317e+00
 -1.6243128e-02
 -2.8099960e-01
 -3.3537024e-01
 -3.8541228e-01
 -7.1900797e-01
 -5.4746661e-02
 -1.2017552e+00
 -2.1223769e-01
 -7.8556821e-02
 -7.6801127e-01
  1.0777318e+00
  2.9616454e-01
 -2.0873977e-02
  1.9936432e-01
 -4.0106956e-02
 -1.0049620e-02
  9.2844687e-02
  5.6868140e-04
 -8.1217922e-02
 -2.1067278e-03
  1.7171373e-04
  1.5026183e-04
 -1.7167300e-03
  1.7864126e-04
  8.2309089e-05
 -2.3376197e-03
 -1.8452588e-04
 -1.3986878e-03
  3.1917621e-03
  1.9470445e-03
  4.7428656e-04
  1.5963197e-03
  1.8065333e-04
  1.2041782e-04
 -3.7701096e-04
  9.4687560e-04
 -1.8007458e-03
 -2.6518601e-01
 -7.2286428e-05
  1.0125519e-03
  1.2922676e-03
  2.3136887e-04
  7.0889934e-04
  2.5370577e-02
 -1.0805857e-04
  5.5869455e-03
 -2.6224884e-03
  4.1718865e-04
 -1.1126972e-03
 -1.1899954e-03
 -7.2438340e-04
 -1.7308961e-03
 -1.3809728e-04
  4.2012492e-03
 -2.7147986e-04
  6.2650593e-04
 -6.4254965e-04
  6.9980207e-04
  1.3707786e-04
 -2.0178920e-03
  1.7977465e-02
 -8.6120673e-04
 -2.1431912e-04
 -1.6428891e-03
 -2.8265261e-03
 -1.1762358e-03
 -2.7645363e-03
 -2.3597267e-03
 -1.8429904e-03
  1.0850684e-03
  1.7621262e-03
 -2.8556769e-04
 -4.3397639e-03
 -3.1243961e-03
  9.6171052e-04
 -1.1051670e-03
 -9.4990921e-04
  7.1197981e-04
  2.4656944e-03
 -9.9377579e-04
  7.0080248e-04
  4.7703023e-04
 -5.1685545e-04
  2.3048122e-03
  1.8083400e-04
 -2.5157491e-03
 -1.0384559e-03
 -1.3780173e+00
  4.4517349e-02
  5.2214628e-03
  3.1364517e-04
 -5.7614772e-03
  1.8456767e-03
  9.6170515e-05
  2.8410353e-04
 -7.8739942e-04
  3.0401933e-03
  9.7493313e-02
  2.4022481e-01
  5.5638803e-03
 -1.8962232e-03
 -1.2570707e-03
  1.2212131e-03
  3.1475825e-03
 -3.4002038e-03
  1.4100565e-03
 -3.6369922e-04
  9.4801089e-06
 -4.7769936e-04
  4.2975662e-04
 -2.8298813e-04
  2.7138012e-04
 -1.1121813e-03
  9.3493954e-04
  1.2635025e-04
  6.4892946e-03
 -1.0101392e-03
 -4.3225233e-04
  1.6013566e-04
  7.2324940e-04
  1.3925632e-02
 -1.6121401e-01
 -1.1568743e-02
 -1.4023896e+00
 -5.1872622e-02
  8.4853047e-01
  1.0836195e-01
 -2.2651142e-01
  2.8714197e-04
 -2.7458847e+00
  4.0868241e-02
  3.0922180e-03
  1.6104873e-01
 -4.4939044e-01
 -1.5233815e+00
 -3.0300926e-02
  5.4497832e-01
 -7.4668616e-01
  8.6670956e-03
 -7.9192263e-01
  1.4331895e-01
  2.3311512e-01
 -1.3879767e-01
 -4.7700904e-02
 -6.9219750e-01
 -4.9354159e-04
 -1.0345735e-03
  8.9555449e-04
 -2.5019697e-03
  2.8647869e-03
  2.6119165e-03
 -1.5318778e-03
  8.7438303e-04
 -2.9419623e-03
  1.9671768e-03
  7.4829260e-04
 -1.2560680e+00
 -1.3924586e-03
 -2.6668375e-04
 -6.6309464e-03
  1.7395149e-01
 -1.9886293e-03
  5.7605165e-04
 -1.0235779e-03
  1.6578467e-04
 -5.3095812e-04
 -4.7204996e-04
  2.7727152e-04
 -3.1586341e-04
  1.1200513e-03
  8.5467059e-04
  3.0907157e-03
 -6.6831452e-04
 -6.2213716e-04
 -5.0920698e-05
  7.3967699e-04
  1.3726325e-03
  2.0102612e-03
  5.2542239e-04
 -1.4857175e-04
  9.0995210e-04
 -1.1423799e-03
  1.4084124e-03
  7.2941859e-04
 -9.2984183e-04
 -1.1976052e-04
  1.1286547e-03
  4.8808678e-04
 -2.1231298e-03
 -6.1543775e-05
  5.3972211e-03
  1.5124674e-01
  6.6128545e-05
 -4.9531914e-04
 -9.3327079e-04
  3.7076157e-03
  6.4618408e-04
 -1.0908819e-03
 -7.2516029e-04
  2.7887112e-01
 -2.7112360e-04
  3.0228955e-05
  6.4185722e-04
  2.1142412e-03
 -3.7971202e-03
  1.4056739e-03
 -4.0205265e-03
  7.7287940e-04
  7.5519091e-04
  1.5115497e-03
 -4.5447491e-04
  4.7438854e-04
  1.4961872e-03
 -9.4249396e-04
  4.3674535e-04
 -3.1746732e-04
 -7.9341081e-04
  2.6179974e-03
  9.6929428e-04
  1.1382245e-04
 -2.2444667e-01
 -3.1281066e-01
  2.7782695e+00
  3.9391363e-01
 -2.7210746e+00
 -1.0965512e+00
  8.0458581e-02
 -1.2783998e-02
  8.6263746e-01
  2.6657152e-01
  1.1540839e-05
 -5.0461590e-01
  1.1010622e+00
 -5.6130596e-02
 -6.4434397e-01
  6.3831583e-02
 -1.1112000e+00
  2.2102923e+00
 -1.9969535e+00
 -7.4908572e-01
  1.6908480e-01
 -5.8027517e-02
  1.1039728e+00
 -1.2964914e+00
 -7.9043937e-01
 -9.8492194e-04
  1.0065077e-03
  1.4104486e-03
 -8.5511454e-04
  3.6861372e-04
 -2.4652429e-04
  4.8205542e-04
 -1.1601208e-03
  4.4062622e-03
 -1.8050561e-04
 -5.7089771e-04
 -9.0670161e-04
 -1.1096077e-01
 -6.6042226e-04
  3.5261856e-03
 -1.8431972e-03
  1.0660718e-03
  2.7581600e-03
  4.4338621e-04
 -3.0831818e-04
  1.1172714e-03
 -3.7117899e-04
  6.5477239e-04
  2.3395364e-04
 -7.5609883e-04
  3.9663836e-01
 -1.6946144e-03
  7.9348527e-02
  6.5795780e-04
  4.4172630e-05
 -2.1393481e-03
 -1.8378386e-02
 -2.7480666e-04
  5.5439588e-05
 -6.5877936e-03
  5.5910123e-04
  6.9593415e-03
 -1.3345535e-03
 -1.1854368e-02
 -1.3281643e-01
 -4.7060198e-01
 -6.1200168e-03
  4.6795697e-04
  5.7163194e-04
 -4.2808113e-01
  3.0574123e-03
 -1.2447184e-01
  1.9003551e-03
  2.5815847e-03
 -1.9124523e-04
  5.3731734e-01
 -1.7196983e-02
  3.4808183e-01
 -4.3814657e-03
 -4.7543564e-01
 -6.1079347e-01
 -1.6679156e-01
 -3.9202535e-01
 -1.2949125e+00
  4.4679502e-01
  9.2177717e-03
  5.2112246e-01
 -5.9012598e-01
 -4.9951011e-01
 -6.5638268e-01
  7.2280332e-02
  8.9605463e-01
  1.1902078e+00
 -1.2248560e-03
 -2.9512786e-03
 -1.1313282e+00
  1.5561403e-01
 -1.8447904e-02
 -4.1718014e-02
 -2.4976501e-01
 -1.9460045e-02
 -2.5748073e-03
 -2.5557026e-03
  5.9514685e-04
  4.4454791e-04
  2.6480460e-03
  7.1450148e-04
  2.1380150e-04
  8.9543974e-03
 -2.3276748e-03
  5.5974559e-04
 -6.1847293e-04
 -1.2878719e-03
  3.0693423e-03
  9.2517037e-04
 -1.3766268e-03
  4.1275611e-04
 -1.4933203e-03
  5.4576659e-01
 -5.4808299e-04
  3.0326415e-02
 -1.0818155e-03
 -1.1696109e-03
 -1.9602778e-03
 -1.3304929e-03
  1.0247992e+00
 -1.9368548e-03
  4.4026721e-02
  4.3614695e-04
  1.7346628e+00
 -1.9844976e-01
 -6.6373982e-03
  1.8758042e-04
 -7.6867038e-01
 -4.4538140e-01
  1.4605993e-01
  1.3271537e-01
 -1.4268912e-01
 -1.2661855e-01
 -1.1193070e+00
 -2.1966121e+00
 -1.0843090e-02
 -6.7436123e-01
 -4.0036216e-03
 -7.1657896e-01
  2.0404290e-02
 -3.4702521e-02
 -4.6288359e-01
  5.5652118e-04
 -5.2089262e-01
 -9.6513168e-04
  1.0709709e-03
  1.3528201e-03
 -2.0525141e-03
  1.0231222e-04
 -1.5221578e-03
  5.3595025e-03
  2.7693787e-03
 -7.3415251e-04
  5.0431595e-04
  1.0557064e-03
 -1.1318528e-04
 -3.1328169e-03
  1.9755031e-03
  4.2422110e-04
  1.5531093e-04
  8.8820647e-04
 -5.1969825e-04
 -2.2851136e-04
  2.8886469e-03
 -2.3997063e-04
 -1.1210860e-04
 -4.7896097e-05
 -6.1612157e-04
 -6.0148194e-04
 -2.5785044e-03
  1.6025921e-04
 -2.6631754e-04
  2.3901359e-04
 -9.6637738e-04
 -2.1610467e-03
 -1.7572984e-03
 -2.2641277e-04
 -1.0416982e-03
 -5.8664875e-03
  7.3954521e-04
 -1.6955147e-03
 -3.2076326e-03
  6.9132802e-04
  4.2015183e-04
 -9.8651403e-04
 -5.3976873e-05
 -1.8085251e-03
 -8.3739875e-04
 -2.3563644e-03
  9.7549590e-04
  4.4867577e-04
 -1.1658189e-03
 -1.7542189e-01
 -2.6323271e-04
  1.0301366e+00
 -5.8775267e-04
  5.3931206e-01
  7.4793428e-02
 -9.7107828e-01
 -5.8018374e-01
 -6.8263158e-02
 -1.5537085e-01
 -4.2595372e-02
  8.6016279e-01
  1.5011803e+00
  6.5950915e-02
  5.8325768e-01
 -5.9693228e-02
 -1.1741718e+00
  1.0391256e-03
 -1.9429952e-01
  1.4940625e+00
 -1.8682082e-01
 -4.3673000e-01
 -2.6900230e-02
  4.8118886e-01
  2.0751663e-02
  4.9484253e-02
 -6.3199863e-02
  1.3534438e-04
 -1.6972058e-03
 -1.1307934e-03
  1.1525392e-03
 -2.1532511e-03
  4.8068192e-04
  9.3576899e-05
 -1.1026730e-04
 -9.3542301e-04
 -2.0324814e-03
 -1.4635706e-03
  2.5374915e-03
 -3.4368172e-04
  7.0607071e-05
 -3.0009283e-04
  2.2303271e-03
 -1.0956072e-03
 -1.1892068e-03
 -1.9872144e-03
  1.8927031e-03
  3.6157549e-03
 -1.6427504e-04
 -6.9404067e-04
 -3.1913305e-03
 -1.8098483e-04
  1.0608558e-02
 -8.7089455e-03
  3.1275973e-01
 -1.8091413e-01
  2.2490672e-04
 -6.8646803e-02
  7.5174391e-04
 -1.7560204e-02
  1.9118045e-01
 -4.3729298e-02
  6.9502299e-04
  6.0941809e-04
  2.4147532e-03
 -3.9466299e-02
 -7.6664966e-01
  5.3359234e-01
 -1.4154400e-03
 -5.4625005e-01
 -6.1702548e-04
 -1.1660313e-01
 -7.6388888e-02
 -3.5577893e-04
  3.5882331e-02
 -2.3095115e-01
 -1.2136097e-01
  3.1558388e-01
 -1.3872985e-02
 -1.2132193e-01
  5.2075814e-03
 -5.6602997e-01
  3.2839552e-02
  2.3371845e-02
  7.5712719e-04
  8.5343443e-02
  5.3557340e-04
  1.3147631e-03
 -1.3265059e-04
  1.1121823e-03
  6.8346029e-03
  1.5517766e+00
 -2.5390489e+00
  6.1723068e-02
 -1.2933492e-03
  2.4786906e-02
  1.3555236e-01
  6.5030153e-03
 -1.5841444e-03
  9.6429419e-04
  1.4467251e-03
  4.1034571e-03
  2.1533421e-03
  2.3460246e-04
 -4.0994663e-04
 -6.9894500e-02
 -1.4832561e-04
  2.1250638e-04
  7.4668304e-04
 -1.0187807e-02
 -2.5535142e-04
 -4.2763761e-01
  3.8629554e-03
 -1.8455830e-03
 -1.0443311e-04
 -1.6048469e-03
 -2.4947362e-01
 -3.5172287e-01
 -2.7084150e-04
  1.5139912e-05
 -1.2695512e-03
  1.5561699e-03
 -3.8199881e-03
  1.2817850e-03
 -2.5292605e-04
  2.1230546e-03
  4.3941528e-04
  3.4779387e-03
  2.1659794e-04
  3.0832833e-02
 -4.6614994e-04
  2.7050001e-03
  6.8715895e-03
 -2.9603549e-04
  3.3036324e-03
 -3.3805296e-03
  1.8101161e-04
  9.3211781e-04
  3.5750305e-03
 -1.7251126e-03
 -3.3612978e-03
  1.6223471e-01
 -5.4348032e-03
 -1.8927738e-03
 -4.3709224e-04
 -1.3345256e-03
 -1.6014579e-03
  2.1519875e-03
 -5.9573125e-04
  2.1651923e-04
 -1.8227379e-03
 -8.7380397e-01
  8.1205922e-05
 -5.6241034e-04
 -8.3220302e-04
  2.2616044e-04
  8.7523542e-04
 -4.7014895e-05
 -2.7587411e-03
 -4.0657845e-04
  1.5114160e-03
 -8.2908041e-04
  2.6958669e-03
  1.5307569e-05
  9.1328274e-04
 -7.0151652e-04
 -1.7163699e-04
 -8.4325584e-04
 -1.1679580e-03
 -1.0496706e-03
  8.7469991e-04
  5.2254425e-05
  9.3243818e-04
  1.5090201e-03
  2.7162180e-04
  4.0800229e-04
  1.4815883e-03
  9.2070350e-06
 -2.4970528e-03
 -7.4871719e-02
 -6.7530316e-04
 -3.6426398e-03
  3.9124282e-04
 -3.4389612e-03
 -7.7729690e-04
 -4.6935212e-04
 -1.4839181e-03
  2.6291229e-03
  1.2739769e-01
 -2.3726781e-03
  8.2213100e-04
 -9.8798645e-04
 -6.7214854e-04
 -4.8753482e-04
  9.4882486e-04
 -2.5515822e-03
  9.5066609e-04
 -8.9061284e-04
  2.5225799e-03
 -1.0965330e-03
  1.9769112e-04
 -1.3745792e-03
 -1.2100896e-04
  2.5958801e-03
 -1.5389819e-04
 -2.0600995e-04
  1.5072100e-04
 -8.3755195e-04
  1.2331011e-03
  1.3335809e-04
 -1.6517994e-04
 -9.3726924e-04
  2.1654714e-03
 -4.5723579e-04
 -2.1865281e-04
 -5.2252907e-04
  1.8768190e-04
 -5.9289712e-04
  2.9666643e-03
  1.0543779e-03
  1.1381235e-03
  9.3261310e-04
 -4.6879146e-04
 -2.0614250e-03
  4.8690414e-04
  3.1829642e-03
  2.6661792e-04
  7.5346303e-01
  2.0794703e-04
 -6.4284177e-05
  3.7008084e-03
  9.2374324e-04
 -2.7088486e-04
 -4.0678680e-03
 -6.9018436e-04
  8.4106592e-05
  1.2620479e-03
 -7.5960450e-04
 -8.2081236e-04
 -3.0812377e-04
 -1.0799251e-04
  2.8215410e-04
  1.4640710e-03
 -4.0211758e-05
  9.4868527e-05
 -3.0736381e-03
  8.6079305e-04
  3.3965355e-04
 -2.0085701e-03
  5.3714104e-03
  4.2140356e-04
 -8.9401356e-04
  8.7758881e-04
  7.8076718e-04
 -7.1698910e-04
 -1.5747461e+00
 -9.9177531e-04
  3.6575008e-04
  1.9102163e-03
 -9.7001414e-04
  4.3644285e-04
 -3.0861008e-03
  2.7265731e-04
 -1.6868052e-03
 -1.1166707e-03
 -5.2214889e-03
  3.3009070e-04
  4.1594772e-04
 -3.6546951e-03
 -1.1675860e-03
 -6.0407439e-04
 -3.4149652e-04
 -2.2445908e-03
  8.1974111e-04
  2.8560150e-03
 -4.8207333e-03
 -6.0192571e-04
 -3.9299753e-01
  2.8511831e-03
 -3.1805865e-02
  1.8924806e-03
 -9.1541427e-01
  7.0209955e-03
  6.4789355e-03
  3.0929013e-03
  1.3668312e-01
  1.9549976e-01
 -4.7759679e-03
  7.7478803e-04
  1.0409511e-01
  8.6957887e-03
  5.6733423e-01
  5.2458757e-01
  2.0938313e-01
  8.8494897e-02
  3.1345119e-03
  3.0508783e-01
  3.2628953e-01
 -1.2007435e-02
 -6.5957109e-04
 -8.0939084e-05
  5.3887367e-02
  1.6828017e-01
  2.9986317e-04
  6.3066709e-01
 -3.0106026e-01
  1.5061512e-03
 -7.7882566e-02
 -2.3380238e-04
 -5.8908395e-02
 -2.5091307e-02
 -3.7638286e-01
  4.9655233e-03
 -1.1940255e-03
  1.7676781e-01
 -1.1888329e-01
 -7.7925527e-01
 -9.1907190e-04
 -8.4272760e-04
 -2.3117429e-01
 -1.2189889e-03
 -3.2608056e-01
 -3.3027329e-02
  3.4704322e-03
  1.8175325e-03
  1.5165068e-03
 -1.3691185e-01
  7.2515589e-01
 -3.8602119e-04
 -6.8692031e-04
  4.7482303e-03
 -2.4992032e-03
 -4.1292533e-02
  2.0056339e-03
 -3.9429097e-03
  4.5730025e-04
  1.0389677e-03
 -6.2640303e-01
 -4.8075572e-02
 -3.7340354e-03
 -1.0114875e-04
  1.7289183e-03
 -4.5930278e-01
 -2.4201648e-04
 -1.5873819e-03
 -9.7692347e-01
  3.5035792e-01
 -2.4690226e-01
 -4.8793762e-04
 -1.5242131e-03
 -4.0854662e-04
 -2.0177331e-05
 -1.4321048e+00
 -8.0832181e-04
  3.7267659e-04
 -5.4410892e-04
  3.0469424e-01
  3.4632641e-04
  1.7849411e-04
  8.0004722e-01
 -2.1832819e-04
 -1.2608031e+00
 -2.4638820e-04
 -4.7657694e-04
  7.0889860e-01
  1.2094576e-03
 -1.3183591e-05
 -6.3762498e-01
  5.8182114e-04
 -4.3377193e-04
  1.2988054e-04
  6.8352948e-04
 -1.4845353e-04
 -2.7558382e-03
 -3.8974844e-03
  5.3073597e-01
 -7.8766562e-02
  2.1735983e+00
  6.3773793e-01
  7.3095545e-04
 -2.2471694e-03
  7.1098009e-04
 -6.7947865e-01
  1.4788175e-03
 -4.3176590e-03
 -4.0054237e-03
 -2.1417117e-01
 -3.0928949e-01
 -2.7261229e+00
  1.4616632e-01
 -5.9725486e-02
  4.7537262e-04
 -1.0954036e+00
  1.8651495e-03
  7.8922830e-04
 -2.7336192e+00
  9.5686948e-01
 -1.6962841e+00
 -4.4548012e-02
  1.1983357e-04
  3.4089714e-01
  9.1793970e-04
 -3.5907826e+00
 -1.7634717e-01
  7.3189143e-04
 -5.6707736e-02
 -3.8677824e+00
  6.5136148e-04
 -6.5934724e-01
 -1.3646857e+00
  4.8436099e-04
 -1.2889078e+00
 -9.4963209e-04
  3.7702284e-04
 -1.8375803e+00
  1.0182186e-03
 -1.2121673e+00
  7.9099435e-01
 -1.3898478e-01
 -1.9125541e-03
  7.3392800e-04
 -1.6315958e-04
 -1.5697280e-03
 -5.1954698e-02
 -1.8793397e-01
  1.0578270e+00
 -1.3323067e+00
  1.0081138e-04
 -1.4989272e-02
 -1.1740616e-05
 -1.9779687e-03
 -1.0316124e-03
  1.5040596e-03
  8.7134633e-04
  1.2487913e-03
 -5.4842141e-04
 -1.6974630e-03
 -1.1752284e-03
 -8.3510176e-04
 -1.0779554e-03
 -1.4426335e-03
  1.1242444e-03
  3.3731569e-04
  2.2393549e-03
 -4.7296513e-04
  8.2153070e-04
  1.4532090e-03
 -2.0972039e-03
 -9.4112189e-04
 -6.8264315e-04
  7.5743871e-04
  1.4204247e-03
  2.1916062e-03
 -8.5620227e-04
 -2.6629181e-03
 -2.5154473e-03
  2.9198593e-04
 -1.9074844e-03
 -6.7800916e-05
  3.3594089e-04
  1.5200392e-04
  1.7694541e-03
  5.0483824e-04
  6.5887354e-05
 -6.3905277e-04
  1.1330615e-03
 -1.1244633e-03
 -4.1271650e-04
 -1.5957702e-03
 -2.2636927e-03
 -3.8707883e-03
  6.5643445e-04
  5.9290710e-03
 -2.0298963e-04
  4.9269118e-04
  2.8138347e-03
 -5.2533665e-04
  7.5159670e-04
  2.7846829e-03
 -6.2317442e-04
 -2.5910893e-03
 -1.2598076e-03
 -8.4453198e-04
  6.0846854e-04
  1.0609286e-04
 -3.2621578e-04
  8.3064265e-04
 -5.5394415e-04
 -2.1803563e-03
  7.8047291e-05
 -2.6931686e-03
 -4.2243614e-03
 -1.3903479e-04
  4.4903229e-04
 -3.2750999e-03
 -1.2104845e-02
  3.5354350e-04
  6.1094982e-04
 -5.2100810e-04
  4.5098844e-03
 -6.4859359e-04
 -1.1916170e-03
 -1.4388448e-01
 -2.1240540e-04
 -2.8510153e-01
 -7.1294196e-03
  6.7070252e-01
  5.4973949e-02
  8.5747749e-01
 -1.5337634e-01
 -3.8481359e-03
  3.7529804e-02
  6.6859060e-04
  4.3139949e-01
  2.6171107e-05
  8.1567344e-04
 -6.1309249e-03
 -1.5633023e-01
  1.6782993e-03
 -1.0637240e+00
  7.4963117e-01
  1.3537025e-02
 -1.2451588e-01
  1.6120493e-02
 -1.3549908e-01
 -5.9191877e-04
  6.8824028e-04
 -1.2619194e-04
 -5.0790864e-04
  5.4562634e-01
  6.6446175e-04
  3.8864338e-04
  3.1029776e-04
 -8.7075832e-04
  1.1531218e-03
 -7.5497612e-04
  1.5158582e-04
  2.0710118e-03
  1.3782139e-03
  1.3310238e-03
  5.8328333e-05
  1.0625171e-03
  2.7135632e-04
 -2.9514546e-03
  3.2945788e-01
 -4.5597288e-04
 -1.4840481e-04
  6.8012229e-04
 -1.5810877e-03
 -6.9646719e-03
  2.0836489e-01
 -9.4336813e-04
  8.7542407e-04
  8.2657707e-04
  1.9011227e-04
 -2.9307676e-03
 -4.1533206e-04
  2.8541970e-05
 -5.5835035e-04
 -1.7878166e-03
  1.8566784e-03
 -1.0874058e-03
 -2.0381496e-03
  1.3333643e-03
  1.8451050e-03
 -8.5983443e-04
  4.3626218e-03
  3.9966735e-03
 -1.3504603e-03
 -5.6765822e-04
  7.6314025e-03
 -4.8343665e-03
 -8.7636604e-04
  4.5189117e-05
  8.8495930e-04
 -2.1471313e-05
  3.8846002e-03
 -4.1339493e-01
  1.0264504e-03
  2.1356213e+00
  1.6872776e+00
 -5.4672736e-01
 -1.7218544e-01
 -5.0293934e-01
  4.3535563e-03
 -1.1504995e-01
  9.6158937e-02
  5.6456238e-02
 -1.8095049e-03
  4.3784687e-01
  1.4272867e-01
  4.5605838e-01
 -2.3026543e-03
 -4.2806932e-01
  1.3342698e+00
 -7.2867453e-01
 -6.1427003e-01
 -1.0259823e-03
  2.9362626e-03
 -3.3077857e-01
 -7.2526240e-01
 -2.9984412e-01
  1.6006738e-03
 -2.9803566e-03
  2.3153904e-03
  2.5004992e-04
  2.7205193e-04
 -5.7979196e-04
  8.4858586e-04
  2.9607536e-04
  7.5389660e-04
  1.4769776e-04
 -3.6211943e-03
 -5.2357151e-04
 -7.1671384e-05
  1.6596366e-03
  5.4847862e-04
 -3.3187501e-03
 -4.2535423e-04
 -1.4718036e-03
 -1.1016316e-03
  2.3588145e-03
 -1.4065617e-03
 -2.5570625e-04
 -1.2195056e-03
  3.7301739e-03
  3.9039884e-04
 -2.8166553e-04
 -1.4358882e-03
 -5.5801606e-01
 -7.4826495e-04
 -5.1349171e-02
 -1.1481107e-03
 -2.2894247e-03
 -8.1040245e-04
 -2.0415357e-03
 -1.5593170e-03
  8.5761130e-05
 -1.3733755e-03
  7.4259070e-04
  3.7275527e-03
  3.8912331e-04
  1.2158361e-03
  2.4552576e-03
 -4.3536462e-02
 -1.5386400e-03
  9.2997792e-04
  3.7984322e-03
  1.6185184e-03
  1.5347508e-03
  1.7733625e-03
  4.4607022e-03
 -2.8949697e-03
 -4.0882109e-03
 -1.1305439e-02
  8.3677465e-04
  6.2625523e-04
  9.6712343e-04
  3.6501637e-04
 -7.9690613e-04
  1.6534660e-04
 -1.5642748e-03
  4.3314770e-03
  5.2489955e-03
 -3.1905988e-04
  5.2109403e-03
  6.9333105e-03
  2.7309677e-01
  1.2236345e-03
 -2.0849714e-01
 -1.4599817e-03
 -9.0132706e-04
  8.6232619e-03
  1.7258053e-03
 -1.9457971e+00
  1.3102246e-03
  8.1343180e-04
  8.1582122e-02
 -2.3291484e-03
 -1.0754437e+00
 -3.5437310e-01
  8.9201987e-01
 -6.2663060e-01
  1.1061488e-02
 -5.8981050e-03
 -3.8417928e-02
 -1.5473178e-01
  5.2432314e-04
  4.7789082e-01
 -9.9860588e-03
 -3.6616858e-02
 -5.0314538e-02
 -6.9815761e-01
  1.4911541e-03
  1.0058478e+00
  8.1650382e-01
 -8.3010364e-06
 -3.9317623e-01
 -2.0688456e-04
 -2.2901286e-01
 -5.0571944e-06
 -9.0685196e-02
 -1.8823292e-03
  8.7965681e-04
 -1.0787661e-04
  7.2529912e-04
 -1.9535028e-05
  6.7710825e-03
 -1.2332022e-04
 -1.6003035e-02
 -1.5718606e-05
 -6.5750844e-04
 -8.2587037e-04
 -6.6023605e-04
 -2.3522319e-03
  3.2586555e-04
 -1.2191304e-03
  1.0047927e-03
  3.3718994e-04
  2.3081939e-05
 -6.9101865e-04
  1.2728651e-03
 -6.3354652e-05
 -3.2180391e-04
 -2.4963343e-03
 -5.9434457e-04
 -4.2380678e-04
  7.4153149e-04
  2.6404206e-03
 -1.5538004e-03
  1.6131662e-04
 -3.4312396e-03
  3.7594163e-04
  6.1227684e-04
  9.0971740e-04
 -8.6572819e-04
 -2.1397783e-01
 -4.8301881e-04
  4.8630508e-03
  8.8594435e-04
 -6.0245174e-04
 -1.6536804e-01
 -1.2598702e-03
 -2.0843053e-02
  1.9139511e-04
  7.6967460e-04
  5.6066499e-03
 -1.9662391e-04
  2.4333533e-03
 -1.9490462e-03
  1.8873326e-03
  3.0683156e-03
  6.6042498e-02
  6.7457207e-02
  4.9766421e-02
 -4.2813006e-03
 -6.2057316e-01
  9.1462414e-04
 -5.1930982e-01
  3.4282446e-01
  6.1870374e-02
 -2.1625856e-01
 -1.0155926e+00
 -1.0087245e+00
  4.3935916e-01
 -9.2615527e-01
 -1.1025033e+00
 -3.1428704e-01
 -9.4434339e-01
 -1.0192571e+00
  8.5538462e-02
 -1.7237903e-01
 -2.7879470e-03
 -8.3537668e-04
  3.1706363e-01
 -5.0928396e-01
 -4.8079327e-01
  2.8629010e+00
 -1.5013045e+00
 -9.5626891e-01
 -2.7186024e+00
 -1.2901166e-01
 -5.8888716e-01
 -1.1486306e-01
  5.8643043e-01
  1.2291531e-01
 -2.2310393e-01
 -8.6820960e-01
 -2.1547122e+00
  1.4846752e+00
  6.4127194e-03
 -1.4554410e-01
  1.7223720e-01
  6.5403467e-01
  3.4696537e-01
 -1.5888029e+00
  8.2009554e-02
 -1.0169944e-01
 -1.4442515e-01
 -5.6194699e-01
  4.5347580e-04
 -3.3303529e-01
 -1.6474653e+00
 -2.9082173e-01
  3.2779545e-01
  1.7300401e-02
  3.5623524e-01
 -5.9381664e-01
 -1.1986374e+00
 -1.1560255e-01
 -3.1507096e-01
  7.6449478e-01
  5.2161203e-03
 -4.8838157e-02
  1.8982986e-01
 -3.6678088e-01
  3.8794950e-01
 -1.2795271e+00
 -4.2807395e-03
 -2.5361506e-02
 -7.9142076e-01
 -1.5478504e-03
 -1.0480353e-01
 -1.2520872e-03
 -5.0466859e-01
 -9.1084652e-02
  4.4069104e-02
  6.3396839e-04
 -1.2456782e-03
  1.0653223e-01
  2.0796983e-03
 -7.3885598e-04
 -1.0744571e-03
 -2.4551671e-02
 -8.3670825e-01
 -1.2692295e-02
  1.5374295e-03
  2.9168013e-03
 -8.5803075e-03
  2.6911383e-03
  2.6928106e-01
 -4.1518797e-05
 -1.8761791e-03
  1.0976745e-03
  3.3276978e-01
 -4.7658449e-03
  4.8335688e-04
 -3.7760659e-05
 -1.8762934e-04
 -8.1006082e-04
 -6.8070455e-03
 -2.3926808e-03
 -1.3080152e-03
 -7.4161839e-04
  4.3976560e-04
 -2.2578931e-03
  8.2642969e-04
  3.2717631e-05
 -2.0297116e-03
 -8.1035658e-04
 -2.5911564e-03
 -1.3715400e-03
 -6.8649108e-04
 -8.9241767e-05
  3.5243016e-04
  2.1753622e-04
 -2.1975844e-03
 -2.4136645e-03
 -2.8750838e-03
  5.4160296e-04
 -6.7372595e-05
  1.7856113e-03
  1.6978990e-03
  6.8925781e-04
 -8.8520726e-04
  2.6951710e-05
  7.3377520e-04
  1.7512593e-01
  1.9011019e-01
  8.1824392e-01
  5.5851126e-01
  5.0636894e-01
  1.1012381e-01
  3.2701055e-03
  4.4509852e-01
  1.9775908e-01
 -3.1523806e-01
  4.1600626e-02
  2.4633166e-01
 -9.7524184e-01
  1.0515721e-01
  2.4009608e-02
 -5.3754175e-01
  9.0538079e-01
 -7.0885271e-01
 -3.9953566e-01
 -4.4193813e-03
 -1.4984698e+00
  8.2331215e-04
  2.3972496e-01
  6.6574872e-01
 -7.2326307e-04
 -1.5408988e+00
  1.0232567e+00
  2.8194432e+00
  2.9988198e+00
  7.8755248e-01
 -5.0828862e-03
  1.0310812e+00
 -5.3802276e-01
  1.9042107e-01
 -4.5814651e-01
 -8.0091822e-01
 -7.4916314e-03
  8.3637124e-01
  1.2495960e-02
  5.5271834e-01
  2.8430748e-01
 -4.6416069e-03
  7.0743626e-01
  4.2833369e-02
  4.1905043e-01
 -3.7046686e-01
  6.1358372e-04
  5.1594681e-01
  1.0093071e-02
  1.9211800e-01
 -1.1748928e+00
  4.0601549e-01
  7.3324764e-01
  3.7526784e+00
  2.5827448e+00
 -3.7167197e-01
  4.9166593e-01
 -4.5316932e-01
  2.4781553e-03
  2.3133543e-01
 -2.9385755e+00
 -2.0307873e-03
 -6.0657167e-01
 -1.3013376e-01
  6.5811411e-02
  2.0330168e-01
  6.1241496e-01
  6.5013126e-02
  9.5332235e-01
 -3.4198623e-02
 -5.8484143e-01
 -6.0718620e-01
  1.2344942e+00
  5.3149003e-01
  3.8395825e-01
  1.1448552e-03
 -1.4745321e-03
 -4.2961710e-05
 -8.4565592e-04
  3.8751881e-04
 -1.0202624e-03
  1.0361626e-04
 -6.0163955e-05
 -3.4736638e-04
 -3.2283675e-03
  1.2910904e-03
 -1.1039246e-03
  6.9892925e-04
 -2.8312551e-03
 -7.7342411e-05
 -9.9826662e-04
 -2.5959758e-03
 -9.3135593e-04
  3.4513022e-04
 -7.6360430e-04
 -6.3763186e-04
  8.5854647e-04
  2.3299333e-04
  4.0529645e-04
  1.6104827e-03
 -1.4670470e-03
  1.1058083e-03
 -4.6634842e-03
 -3.1527868e-03
 -4.2823567e-03
 -4.8133582e-04
 -8.9696673e-04
 -1.1882977e-04
 -5.3053739e-04
 -2.8617811e-04
  8.2598772e-04
 -1.4795111e-03
  1.2855481e-04
  1.7134997e-03
 -4.2297271e-01
 -1.8205672e-03
  2.9833996e-04
 -2.1174312e-01
  5.3711387e-04
  8.0033997e-04
 -1.8864949e-04
 -8.3823706e-04
 -2.5910591e-03
 -9.0404268e-04
 -2.3715727e+00
  8.8758382e-04
 -1.4415829e-03
  4.8922463e-03
  2.4706491e-03
  1.0373767e-04
  3.1663224e-02
 -2.9581520e-03
  1.2695830e-04
  5.1730179e-04
 -4.0912160e-04
 -2.1368274e-03
  1.9260218e-03
 -2.4091285e-03
 -1.7363539e-04
 -4.0129531e-04
  7.8975316e-04
  4.2083135e-04
  5.1718607e-04
 -6.0177606e-04
  4.0303118e-04
 -5.1472173e-04
  2.7540801e-04
  4.9005193e-04
  2.5387463e-04
 -7.0133072e-04
 -5.8675196e-04
  6.2945893e-04
  6.2248879e-04
 -2.4563257e-04
  2.2504979e-03
  4.5947374e-05
  3.9690468e-04
  6.2992034e-04
  1.0206390e-03
  3.0742199e-04
  7.2723185e-04
 -4.4545744e-04
  1.0290875e-04
 -9.6484937e-04
 -3.2149078e-03
 -4.6600890e-01
 -1.1253477e-03
  3.3227843e-04
  3.7813108e-04
 -2.2096864e-03
 -7.2882284e-04
 -1.8893294e-03
  8.2002312e-04
 -3.1861255e-05
  4.9284652e-01
  2.5019464e-03
 -8.6569641e-04
 -2.4418135e-03
 -2.7111196e-04
 -1.0114792e-03
 -5.8252073e-04
 -2.0619305e-03
 -8.9639128e-05
  1.2285942e-03
 -1.7011691e-04
 -3.6328912e-03
  4.3409423e-04
 -6.5397425e-04
  1.7249267e-04
 -8.8059474e-05
 -2.7369146e-04
 -2.8512973e-04
 -2.2281939e-03
 -1.0196916e-03
  4.9135718e-04
  3.2923971e-03
  1.5973720e-03
 -5.3574686e-04
  9.4386190e-04
 -3.3467278e-04
 -6.0691516e-04
 -4.6685143e-04
  1.2393009e-03
  8.7495260e-03
  2.2925626e-04
 -2.0490000e-03
  8.0246961e-04
  2.0121940e-04
 -2.4330922e-05
  2.3227788e-03
 -2.4707783e-03
  4.5857936e-04
 -1.3417737e-03
 -4.1965134e-03
 -7.9953292e-04
 -1.0521268e-02
  2.5760271e-03
  4.5102090e-03
  7.4828125e-04
  7.5450185e-04
  3.8564929e-03
 -8.2067505e-04
 -8.1328204e-04
  1.3456520e-03
 -5.0407591e-05
 -4.1648292e-04
  1.6172193e-03
 -7.7875689e-02
  9.1271599e-05
  1.4274827e-03
  7.1607275e-05
  7.8576216e-03
  5.3633406e-04
  3.3596032e-06
 -1.6553462e-02
  1.7395955e-04
  1.5399662e-03
  8.5213162e-02
 -9.8923398e-03
  3.6898176e-03
  1.0703772e-03
  4.2163261e-04
 -1.0409260e-01
 -7.8671018e-04
  2.9603124e-04
  2.4088263e-04
  5.0273030e-03
 -1.1309568e-05
 -6.6389597e-04
  1.5046377e-03
  2.5936350e-04
 -4.0200025e-02
 -9.1030722e-04
  5.2029737e-03
 -1.2495180e-03
 -4.1133509e-04
 -1.1981631e-04
 -9.8352146e-04
  3.4481762e-03
 -1.5282295e-04
  3.6439768e-03
 -2.6475848e-04
 -6.0777966e-04
 -2.4819510e-02
 -1.5287292e-03
 -6.7396072e-04
  3.5423477e-04
  1.2673255e-03
  3.7096074e-04
  3.3777114e-04
  2.1241880e-03
 -5.2190281e-04
  9.5002404e-05
  5.3759111e-04
  2.5989875e-04
 -8.2950008e-01
  2.2024436e-02
 -4.4951966e-01
 -1.8178217e-02
  6.7823160e-01
 -5.0171870e-01
  1.5452900e+00
  1.3399757e-01
 -2.0271795e+00
 -2.9848137e-01
 -3.3331055e-02
  3.8916770e-02
 -1.3423718e+00
 -3.2931293e-04
 -8.9564753e-01
  1.6176632e-01
 -4.1105342e-01
 -5.2191883e-01
  1.0978398e+00
 -8.0037517e-03
  1.6671019e+00
  2.6814404e-03
 -6.8612397e-01
 -1.5067340e-02
  1.5060666e-01
 -1.0025807e-02
  2.2254429e-04
  2.1478687e-03
  9.1788464e-04
 -7.7574194e-04
  5.1156490e-04
 -5.8968337e-05
 -6.9510324e-06
  6.9202558e-04
 -1.1644593e-03
  2.9119378e-04
 -1.1981566e-03
 -7.6290697e-04
  6.5466447e-04
  6.3933358e-03
  1.4199196e-04
  8.2445523e-04
  8.1139756e-04
 -1.6956697e-03
  5.2897184e-04
 -1.1951922e-04
  3.6957845e-05
 -1.5323036e+00
  1.7843575e-03
 -1.6031354e-03
  1.0069447e+00
  7.5858673e-03
 -3.7097108e-02
 -7.8312057e-01
 -3.6458969e-01
 -3.1838797e-02
 -6.3807613e-01
  6.6442931e-01
  4.3565226e-01
 -5.1731205e-01
 -1.5172795e+00
 -1.5494237e+00
  6.7513168e-02
  4.7386353e-04
 -1.0285794e+00
  1.2853411e+00
 -3.1959766e-03
 -3.3045477e-01
  9.8865372e-01
 -7.6031840e-01
 -9.8970488e-02
  3.1972122e-01
 -6.3853747e-01
 -7.7911513e-03
 -5.3721305e-02
  6.1330651e-03
 -7.0105125e-03
 -2.6010826e-01
 -2.5346646e-01
 -8.6293899e-02
 -5.9953433e-01
  4.4419405e-01
 -8.3447772e-01
 -3.8273290e-01
 -8.7266183e-01
  3.2454199e-01
  7.9315335e-01
  9.8311281e-01
 -4.5662710e-01
 -3.0105942e-01
  6.6963458e-01
 -1.7121969e-01
  5.6013912e-01
  1.2893902e+00
  3.7498109e-02
 -4.7059917e-01
  2.4292024e-03
 -5.3838480e-01
  7.2718829e-02
  5.3868063e-02
 -6.7165762e-01
  8.0809081e-01
  1.1410594e+00
  1.2446711e+00
  1.5214394e-01
  1.0267047e+00
  7.6446265e-01
 -1.9471819e+00
  1.2141515e+00
  6.3819408e-01
  1.8288115e+00
  9.0148844e-02
 -1.9141419e-01
  1.8588068e+00
  2.1914883e+00
  7.2462785e-01
 -5.1547891e-01
  7.7638757e-01
  1.7932447e+00
  6.5534644e-02
  6.8324184e-01
 -4.0511948e-01
  1.3509643e+00
 -8.1727439e-01
  6.3857958e-02
 -8.5078226e-04
 -4.1239848e-03
  5.3288507e-01
 -3.2701753e-02
  1.4159696e+00
 -3.1767467e-01
  5.1333908e-02
  1.2195474e-01
 -5.0657094e-02
  5.6833029e-01
  8.2908809e-04
  1.0887632e-01
  1.2341833e-02
 -2.9205615e-03
 -6.4433104e-04
  1.0217623e-04
  4.1837507e-04
  4.5104200e-01
  1.0028203e+00
 -1.0417107e-01
 -1.0015422e-03
  8.5530931e-04
 -5.1887900e-02
  9.0825552e-04
 -3.3126542e-01
  1.1712919e+00
 -8.3937521e-05
  5.1843691e-01
 -1.5504588e-04
 -9.2381877e-01
 -4.0828329e-01
 -1.7896225e-01
 -5.8358693e-01
 -2.4667436e-01
  1.2062131e-03
 -1.9404192e-01
 -2.1158598e-01
  5.5997151e-01
 -8.2272269e-02
  7.2597532e-04
 -8.0065936e-01
 -1.1172140e-03
  4.0357161e-02
 -2.2578809e-01
 -1.3025480e-04
  5.9930116e-01
 -2.0068223e-03
 -6.2234247e-01
 -1.8537432e-01
  8.9580030e-04
  4.3249465e-04
 -1.9828076e-03
  3.0069232e-03
 -1.7287860e-02
 -4.5341678e-04
 -5.7745814e-01
 -3.5383564e-03
 -2.5569409e-04
  3.2986312e-03
 -3.4228319e-04
  1.6324820e-04
  4.8759222e-04
  4.1630915e-03
 -1.1356744e-03
  1.9236926e-03
  3.8472190e-04
 -2.2144188e-01
  1.5104866e-01
 -1.8438819e-03
 -2.3663759e-03
 -1.4149913e-04
  1.8938296e-03
  4.6704520e-04
 -1.1875000e-03
 -3.4807676e-05
  7.8793555e-02
 -3.5314173e-01
 -1.3540341e+00
 -1.7826607e-03
 -1.7538697e+00
  2.0347378e-01
  1.7523018e+00
  5.1537758e-01
  3.9369148e-01
  1.0444148e-01
  1.7639865e-01
  1.6504073e+00
 -3.5885084e-01
 -3.0012432e-04
  7.8966626e-04
  3.7181011e-01
  8.7214392e-01
 -1.3346995e+00
  6.1085588e-01
 -4.6529350e-04
  4.3286919e-03
  2.2615660e-02
 -5.8644199e-01
  3.3913809e-01
  3.7987366e-01
  5.0870037e-01
 -9.4149089e-01
 -1.2773612e+00
 -3.4544945e+00
 -1.1836026e+00
 -9.3956497e-03
  3.8443008e-01
 -6.2271011e-01
 -2.1486783e-02
 -1.7799202e-01
  3.8672113e-01
  2.8644234e-01
  8.4499186e-01
 -6.1823046e-01
 -1.2187077e+00
 -7.7309996e-01
  6.8688214e-02
 -1.0233608e+00
  1.9722686e+00
 -2.2841210e+00
  2.4919128e-01
  1.2858135e-01
 -7.1381962e-01
  1.4995828e-01
 -1.0149510e+00
 -7.9748908e-04
 -1.0098499e-03
 -1.3193986e-03
 -3.1708335e-04
 -1.3008368e-03
  1.4924043e-04
  8.5336750e-04
 -1.4837697e-03
 -2.3263390e-03
 -8.9432835e-04
 -1.4603620e+00
  8.1473151e-03
  9.4570903e-05
  1.2725901e-03
 -4.9455580e-04
  1.4440915e-05
  2.2659476e-03
 -6.8241399e-04
  3.6168315e-03
 -5.8276387e-04
 -6.0044262e-03
 -6.6579028e-04
  5.5072084e-02
  5.8008335e-03
  2.7164775e-03
 -6.0659600e-04
 -8.9327124e-04
  2.8559822e-03
  1.9437042e-03
  3.9526264e-04
 -1.1946245e+00
  3.6625366e-05
 -5.2138872e-04
  1.4239450e-03
  9.9339428e-05
 -2.3015926e-03
  2.4053094e-03
 -2.3998259e-04
  9.0516469e-06
  4.5524829e-04
  1.7173098e-03
  5.1169578e-02
 -4.5384571e-04
  2.2576533e-03
 -1.2571840e-03
 -2.6688090e-04
  1.1309308e-03
 -4.6762987e-04
  5.3759287e-03
 -1.3080435e-03
 -1.3644957e-04
  1.2677674e-03
 -2.5129195e-02
 -2.6141333e-03
 -4.8963993e-04
  7.9282548e-04
  7.7622972e-04
 -4.3482580e-03
  6.6828467e-03
 -1.9054916e-02
 -6.0028244e-05
  3.1087578e-03
 -8.1844768e-03
 -1.4457244e-03
  2.4419682e-04
  4.0613613e-04
  2.7920331e-03
 -1.5462163e-01
 -1.4742399e-03
  2.3061865e-04
 -7.2278799e-03
  1.9453283e-03
  3.3409139e-03
 -5.6825642e-04
  1.9083342e-03
 -8.9125037e-03
 -1.8483319e-03
 -1.9367245e-01
 -4.0200129e-03
 -5.5533863e-04
  1.7873277e-03
 -1.1700001e-01
 -1.3627027e-03
 -7.8281417e-04
 -1.8741356e-03
  5.0323615e-03
  1.7852980e-03
 -4.6157604e-03
  5.4008648e-04
 -1.7429012e-04
  3.1848042e-04
  3.5174787e-03
 -1.0883909e-02
  6.4379334e-01
  2.2188008e-03
 -2.2243701e-04
  2.6292528e-03
  3.2248388e-03
  1.2273775e-02
 -1.3547245e-03
 -2.1004633e-04
  2.5895154e-04
  8.7915677e-01
 -8.6314632e-03
  1.0980170e-03
  1.1790559e-03
  8.5810311e-02
  5.9939304e-04
  9.7047625e-04
 -5.7033664e-01
  6.9550460e-04
  9.5351025e-02
 -2.4703806e-03
  1.7882163e-04
 -1.0264087e-03
  2.1183416e-03
  4.4994932e-01
  3.6014399e-01
 -1.9084771e-04
  7.7104766e-04
 -8.6690307e-02
 -7.9018628e-06
  3.0239895e-01
 -2.1403137e-04
  1.1996842e-04
 -1.1895493e-03
  5.1900861e-05
  6.8799063e-04
 -3.7710117e-05
  2.0803562e-03
  6.2780286e-04
  2.1224725e-03
  5.2677198e-05
 -5.9612846e-04
 -9.2382124e-04
  2.4067066e-04
  9.4876689e-04
 -3.8057717e-03
  1.0726753e-04
 -1.5267945e-04
  5.2310447e-03
  3.9314725e-03
 -3.9601210e-01
  3.9960505e-04
  1.5128881e-03
  2.2768491e-04
  1.2544103e-03
  2.6230505e-03
  3.9945450e-04
 -5.2341167e-04
  1.4937137e-03
 -2.8541551e-03
  4.5602096e-04
  3.2052521e-03
  7.3972024e-04
 -3.3210218e-04
 -6.9690874e-04
  6.9040444e-04
  8.5766910e-04
  9.2431623e-03
  9.6147397e-04
 -8.7526813e-04
 -1.1699010e-03
  3.6634767e-04
 -9.4098836e-04
 -5.0288555e-04
  1.6680057e-03
 -3.5450156e-03
 -4.8340281e-04
 -7.5142721e-05
  2.9730343e-03
 -2.6085144e-03
 -3.2943364e-03
 -2.1045092e-02
  2.7604487e-05
 -1.6195560e-04
  1.0153345e-03
  1.2267988e-04
 -4.1339966e-04
  1.2821044e-03
  1.0106668e-03
 -5.4645701e-04
  2.4663366e-04
  9.4208104e-04
  5.9960014e-04
 -3.1423985e-03
  1.5336224e-03
 -1.3154292e-03
 -5.5254591e-03
  6.4121833e-04
 -1.0512170e-03
 -2.4931383e-04
 -1.6074948e-03
  3.0066869e-03
  2.4020621e-04
 -1.6979931e-01
  1.4052445e-03
 -1.0763356e-03
 -1.0142672e-03
  2.9139017e-04
  1.6709082e+00
  4.7385332e-01
  6.3202089e-01
  9.2724615e-01
 -1.6416848e-01
 -1.0732219e+00
 -2.5874183e-03
 -5.7427901e-01
 -1.8396455e-01
  3.5678372e-01
 -1.7880375e+00
 -6.2751257e-01
 -4.6244311e-01
 -2.1721499e-02
  2.1451442e-04
  3.2488948e-01
  4.4282600e-03
  8.2623655e-01
  3.3395091e-01
 -7.3732738e-03
 -9.9671502e-03
 -2.6282021e-01
  9.1325179e-02
 -4.4027217e-02
  1.0048339e-02
 -1.0538884e-03
  7.4500742e-04
 -2.1816708e-01
 -3.2680333e-04
  1.6457669e-03
  1.6252011e-02
  3.5166867e-02
  1.2547011e-03
 -4.0460043e-04
 -1.4473654e-02
  8.8341329e-03
  1.4707471e-01
  4.6257462e-04
  7.1075704e-04
 -1.0897947e-03
  7.1077236e-05
  2.3908834e-03
 -3.1271851e-01
  3.2612239e-03
  5.7808060e-02
  1.9928791e-01
  2.5889067e-02
 -2.8496388e-01
  3.3855010e-03
  1.9926328e-04
 -9.1741543e-04
  9.3310856e-04
 -4.6073705e-02
  1.3107281e-03
 -5.1308033e-04
 -7.8419894e-03
  9.9477218e-04
  2.4028772e-03
  4.7111334e-04
  1.9530414e-04
  2.6023603e-04
  1.3417132e-01
 -2.2711146e-04
 -1.0521605e-03
  2.6050031e-03
  7.3675323e-01
 -2.4397346e-05
 -7.3122251e-04
 -3.9233710e-03
 -1.1246871e-03
 -1.4951294e-03
  6.9118518e-04
  3.9345494e-05
  1.1955779e-03
 -4.6436128e-04
 -1.6230065e-03
 -8.6131102e-01
 -2.3577022e-03
  3.0279952e-01
  9.5186108e-01
 -8.1863836e-05
 -8.2176811e-01
  8.8376424e-04
 -5.1892865e-01
 -2.1338108e-04
 -3.3287862e-01
  5.7360292e-03
 -2.1758719e-04
 -1.2973471e+00
 -8.8466424e-01
 -4.2806527e-01
 -6.3433446e-04
 -3.5738898e-03
 -1.0804985e+00
  5.3024906e-01
 -2.8806835e-01
 -1.0031143e-04
  1.6208064e-03
  3.0189601e-04
 -7.9976767e-01
  1.2490515e+00
 -7.2077205e-03
  2.4750722e-03
  9.7801571e-04
  6.2582053e-02
  1.5896754e-03
 -9.9691099e-01
 -3.8726792e-01
  1.1765528e-01
 -6.8307362e-02
 -1.0423924e+00
  2.9939425e-01
  1.1947191e+00
 -8.0661094e-01
 -1.9308757e-04
 -3.0671905e-03
 -5.4970413e-04
  3.1776799e-04
  3.7556386e-03
  2.7150940e-03
  2.2178292e-03
  2.6991188e-03
  2.4656993e-01
 -1.0764191e-04
 -4.6126770e-05
 -7.4313540e-04
  3.1600220e-03
  8.9009298e-04
  1.0688202e+00
 -3.6558861e-01
  4.1203151e-04
 -1.2228104e+00
  5.1892590e-04
  3.8509423e-01
  2.7358237e-01
  1.1423004e+00
  6.0482491e-02
  3.8841492e-03
 -1.0712783e+00
 -2.4440703e+00
 -9.2324269e-01
 -4.9062347e-01
  5.0436907e-02
  1.3645391e+00
 -9.6295059e-01
  2.4859307e+00
  1.7194493e-03
  1.0119411e-01
  2.8205017e-04
 -2.1103295e-02
 -1.1210246e-03
 -1.5813493e-03
  2.0752655e-01
 -1.3688805e-03
  1.7830431e+00
  1.0356209e-01
 -1.9829493e+00
  1.4898663e+00
 -2.9888697e+00
  1.0931504e+00
 -6.7623842e-01
 -3.7076041e-01
  2.8356247e+00
  1.6782289e+00
 -7.3422338e-03
 -1.3384365e-02
  4.6808958e-01
  3.3943161e-01
  6.0032070e-01
  2.7857882e-01
 -1.6241779e-03
  1.1217491e-01
 -1.1620110e+00
  6.0252035e-01
  9.4822504e-02
  1.7487013e-03
 -5.2808857e-05
 -1.2078895e-03
  8.6768862e-04
 -1.7998553e-03
 -9.3832808e-03
  3.4777485e-04
  5.9768790e-04
 -4.4175419e-03
 -1.1186446e-03
  3.2858583e-03
  2.7235370e-04
  2.4776831e-03
  1.6675799e-04
 -1.9531865e-03
 -1.1778149e-03
 -1.2279863e-03
  1.9031576e-03
 -7.5062813e-04
  1.2094759e-03
  2.0964463e-04
 -2.7193844e-03
  1.5123796e-03
  1.7766401e-04
 -1.6526581e-03
  1.2956938e+00
 -1.5670888e-03
  6.9605984e-04
 -2.1330095e-03
  1.4365787e-03
 -1.1774543e-03
 -1.9299206e-03
 -2.7747172e-05
  1.5090343e-02
 -1.2023184e-03
  2.4490233e-04
  4.0742272e-04
 -4.3476063e-01
  4.5766364e-04
  1.9022168e-04
 -1.6994736e-03
  7.4175984e-04
  4.7956333e-03
 -2.3621935e-03
  1.9527710e-04
  4.5404353e-04
  2.4381112e-03
  7.1690825e-04
 -8.2359789e-03
  2.1482403e-03
 -1.1961471e-03
  4.4027000e-04
  8.2164723e-04
 -4.2155306e-04
  2.3049317e-04
  3.9881605e-04
 -3.0469454e-03
  1.0095652e-03
 -1.6040227e-04
  2.8977487e-03
  1.5012748e-03
  4.7925217e-03
  2.2909169e-03
 -8.2910951e-04
  3.4692576e-03
 -8.2547660e-05
 -1.1536762e-03
  5.4809655e-04
  8.3317462e-04
 -7.9411460e-04
  4.8850954e-04
 -1.0479158e-03
 -2.2010405e-05
 -1.5222388e-03
 -2.3246037e-03
  3.5114998e-03
 -4.4896803e-03
  3.2960906e-04
  1.8988521e-03
  3.1872237e-01
 -5.4223996e-01
 -2.7712929e-01
 -7.9100901e-01
 -2.7150286e-03
 -2.0036220e-03
 -5.3893261e-02
  1.1060540e-01
 -4.3926680e-01
 -5.5770487e-01
  1.0449203e-03
 -1.8632393e-01
  4.1816611e-02
  3.2520395e-02
 -1.0169228e+00
 -2.8867423e-04
  8.6788261e-01
  3.2925627e-03
  1.0405624e-03
 -5.1956403e-01
  2.9082131e-04
 -4.1188337e-03
 -7.5646597e-01
  1.7274088e-03
  2.6998036e-03
 -1.8626811e-01
  1.8468653e-01
  2.5342864e-05
  5.1346457e-01
  5.8006233e-01
 -2.3240673e-03
  1.0151813e-02
  1.1007961e-02
  3.2955423e-01
  3.5570681e-01
 -2.6647246e-03
  7.7092735e-04
 -2.4641945e+00
 -2.0345687e-03
  5.5705070e-01
  1.0761853e-03
 -1.2346663e-01
 -8.2657820e-01
  2.5271496e-03
  5.0652057e-01
 -1.0517624e-03
 -2.0293436e-04
  9.7435666e-04
 -2.9408443e-04
  1.9862344e-03
  2.0956381e-03
 -3.0930908e-04
  1.5271928e-03
 -7.1732223e-04
  1.5918068e-03
 -1.1710920e-03
 -1.2103664e-03
  9.0729061e-04
  8.8764929e-05
  8.4265851e-04
 -1.8779751e-03
  1.4122239e-03
  3.6043436e-03
 -1.3656112e-02
 -1.4546025e-04
  2.5041419e-04
 -6.1722938e-04
 -9.6893421e-04
  1.9640143e-03
 -5.4171478e-04
  4.4508181e-03
 -1.3256844e-03
 -2.9009901e-04
  1.7905376e-04
 -2.9994017e-05
  9.1682421e-04
 -2.5680757e-04
  5.4765615e-04
 -1.9794297e-03
 -1.2131794e-03
 -1.6114139e-04
  7.0176087e-04
 -1.1750252e-03
 -7.3171279e-04
  1.3743272e-03
  7.7313511e-04
  4.0703718e-04
 -3.7431341e-04
  1.0893362e-03
  8.7730616e-04
  5.5511401e-04
 -8.2315426e-05
  3.3159924e-03
  1.4616458e-03
  1.6314936e-03
 -1.0474007e-04
  6.0092733e-04
  7.0980570e-04
  6.9258234e-04
  1.1250352e-03
 -1.8661699e-03
  9.6752272e-05
  1.3727602e-03
  1.2386076e-03
  1.7469958e-04
  5.6175668e-06
 -3.0803026e-04
 -8.8182435e-04
  1.1797382e-03
  6.7685079e-04
  1.5012248e-03
  7.2486274e-02
  3.4387826e-04
  9.4933624e-05
  2.3573018e-03
 -1.1306498e-03
  2.4614707e-03
 -5.6450610e-04
 -2.1867864e-03
 -1.9639267e-03
 -4.8346067e-04
  2.3494347e-04
 -4.3789106e-03
  9.0015464e-04
 -2.0107212e-03
 -1.2947037e-03
 -5.9236386e-03
  1.0449128e-03
  4.1087642e-03
 -7.5231231e-04
  5.1920139e-04
 -2.8412897e-04
 -1.0588884e-04
  4.9791351e-04
  7.5895136e-05
  1.4412592e-03
 -2.5157802e-04
  8.1617880e-04
  1.2979298e-03
 -6.5792078e-04
 -3.9985313e-04
 -3.7217434e-03
 -5.8248668e-04
 -6.4932858e-05
 -3.1340576e-03
  2.4811411e-04
  8.7791556e-01
  7.2067557e-04
 -1.6475129e-03
  3.2478364e-04
  7.2704772e-03
 -3.7979013e-03
 -6.3868491e-03
 -1.3835120e-01
  3.8271566e-04
  3.5207119e-04
  1.2166467e-03
 -1.8101950e-04
  7.3869777e-04
 -6.0201783e-02
  1.2596021e-03
  1.1227664e-04
  9.4330616e-02
  5.5754604e-04
 -1.1814851e-01
 -4.8472820e-04
  1.8348649e-01
 -8.0195878e-04
 -8.6949687e-05
 -1.1143751e-02
 -2.6943528e-03
 -2.8603738e-03
 -1.5276343e-03
  1.5285251e-03
 -2.0406679e-03
 -2.8763313e-03
 -3.2427397e-02
 -4.4466797e-04
  1.4075695e-04
 -4.7911159e-04
 -2.7941715e-03
 -2.5968554e-03
 -3.4985447e-04
 -4.3383497e-04
  2.5591005e-03
  7.7308732e-04
  1.6207499e-03
  5.3680069e-05
  8.6833471e-03
  9.8582881e-04
 -4.5983127e-04
  2.4978319e-05
  1.2643239e-03
  2.2059241e-03
 -5.6165247e-03
  4.9395522e-04
  1.3880454e-03
 -3.6877627e-04
 -8.1854954e-04
  5.0584163e-04
  4.7133432e-05
 -2.3250619e-03
 -8.6340252e-03
  5.2633178e-03
 -1.4569095e-03
  1.4807390e-03
 -1.4016496e-03
  1.7393040e-03
  1.5886631e-03
  6.2077087e-03
 -5.1786785e-04
  1.6655515e-04
  8.1685666e-06
 -1.0509442e-03
 -6.8279792e-04
 -6.0566480e-04
 -5.4806890e-04
  1.1214243e-03
  2.3263509e-03
 -4.7809528e-03
  4.6070293e-04
  6.6605530e-04
 -5.6766078e-04
  8.9043326e-04
 -1.7540617e-05
  2.8569809e-01
  1.3373253e-03
  8.0158345e-05
 -4.0041131e-04
 -3.8385111e-05
 -1.4664520e-03
 -1.4047875e-03
 -2.7540574e-04
  1.0844909e-03
  2.1284638e-04
 -1.8557599e-04
  4.0984177e-04
  4.4735058e-04
 -6.7443837e-04
  8.9222325e-05
  6.7152025e-04
  3.1847006e-04
 -1.2532219e-04
 -6.1865465e-04
 -9.3615748e-04
  3.6766031e-04
 -2.6535017e-05
 -7.0072210e-04
  2.6542046e-03
 -2.2333760e-04
 -1.1512889e-03
 -1.1067538e-03
 -3.8045997e-04
  1.1209656e-03
 -1.2317833e-03
  1.2525559e-03
  1.5772160e-03
 -1.0350116e-03
  1.9077132e-03
 -1.7264525e-04
  1.8560495e-03
  9.6254773e-04
  4.2144218e-04
  8.9205921e-01
  1.7259315e-04
 -2.7637524e-04
  1.8715535e-04
 -2.6701918e-04
 -2.6567158e-04
 -1.4887039e-04
 -2.3880706e-03
 -1.2396389e-03
 -2.7253840e-05
 -1.0502259e-03
 -1.6112051e-03
 -1.4294559e-03
 -7.7397004e-04
 -1.2021163e-03
  5.1062867e-05
 -4.4825341e-04
  1.6340436e-03
 -2.3888123e-04
 -1.6734664e-05
 -7.9972349e-04
 -9.6859591e-04
  1.1711876e-03
 -1.1586685e-03
  5.6933542e-03
 -1.3057793e-03
  2.3095096e-03
  8.3832548e-04
 -1.2974176e-03
 -2.4339785e-03
 -3.1904692e-03
 -1.6191447e-03
 -3.0132211e-03
 -1.0025678e-03
 -1.3788221e-03
  7.4245888e-01
 -2.3282746e-05
 -3.8495217e-04
  5.1271042e-04
  5.6628709e-05
  3.2368436e-04
 -2.1934577e-03
  9.4317785e-04
 -1.1590058e-03
 -1.5818546e-04
 -1.3966047e-03
 -1.4758183e-04
  3.6768444e-05
 -1.2861498e-01
  1.2763906e-03
 -1.9435987e-01
 -6.1242527e-04
  1.1264215e-03
 -2.3372343e-03
 -2.5504066e-03
 -1.3487361e-03
  1.6486071e-03
  1.1487668e-03
  6.9369875e-02
 -1.4431727e-01
 -1.5634916e-03
  2.0434622e-02
  1.0298144e+00
 -9.3449467e-01
 -1.1655048e+00
 -6.1801350e-01
  9.6888551e-05
 -8.4439962e-04
  1.2376149e-01
  1.0988846e+00
 -2.3981546e-01
 -1.6248374e-01
  7.2966883e-05
 -4.4973877e-01
  5.9637696e-01
 -2.4121173e-03
 -2.1269383e-02
 -7.1612856e-04
  4.7613002e-02
 -1.3147788e+00
 -7.5015478e-04
 -1.0882258e-01
 -7.9077770e-05
  1.5791930e-03
  2.5932284e-05
  1.4831971e-03
 -6.7202270e-04
 -6.9615677e-02
  3.0444346e-03
  7.8830408e-04
 -3.6953378e-04
 -4.7571390e-04
  2.1007485e-04
 -4.0644556e-04
 -1.5176183e-03
  1.1015736e-03
  5.3286942e-04
  1.4355117e-03
  3.1289232e-03
 -4.0471099e-02
 -5.9758663e-06
  3.0704048e-03
  2.2296896e-03
 -6.8605423e-04
 -1.7405202e-04
 -4.0479694e-04
  1.0751591e-03
 -1.5363640e-03
 -3.0674601e-03
  1.7537610e-03
  7.8558500e-05
 -2.9185234e-04
 -9.7137621e-05
 -8.7785520e-05
 -8.5768597e-03
  1.0349349e-03
  7.4904854e-04
  5.1675335e-04
  3.4241703e-01
 -3.2142110e-04
 -3.4823946e-03
  8.1490190e-04
 -1.3300691e-03
 -3.9954542e-04
  3.9187775e-04
  6.5668498e-04
  1.9550007e-03
  1.1483113e-03
  7.7337900e-04
 -5.4230401e-04
 -1.8921891e-03
 -1.9894194e-04
  1.0786494e-03
  6.4745772e-04
 -1.5259102e-03
 -3.1764817e-03
 -2.2310361e-03
  1.4196456e-03
 -1.1475418e-03
 -3.2196013e-04
  2.5755513e-04
  6.0964812e-04
  1.8184959e-04
 -7.1252201e-04
 -2.1765232e-03
 -6.9550681e-03
 -2.8481060e-03
 -4.6385480e-03
  1.9170372e-03
  3.4146308e-04
  1.7334002e-03
 -6.6351972e-06
  1.5207571e-03
 -9.1843837e-04
  3.4324054e-04
  5.9307757e-04
  1.6227603e-04
  1.2299018e-03
  2.1275387e-03
 -7.7885902e-04
  5.2741152e-04
 -1.2769178e-03
 -1.1916313e-02
 -2.9646157e-04
 -1.3450288e-03
 -1.0694205e-03
 -1.0081205e-04
  4.8562782e-04
  1.1282219e-03
 -5.1536289e-04
  1.6016631e-04
 -6.7653495e-04
 -1.4722360e-03
  1.7549361e-03
  1.4238205e-04
 -8.9729723e-04
 -4.3649768e-04
 -1.0676727e-03
 -3.2691478e-03
 -2.8444419e-03
 -1.2024093e-03
 -9.5051900e-04
 -1.0380361e-03
  4.6054512e-05
 -1.7218782e-04
  2.3788114e-03
 -4.3494767e-04
  9.4155240e-04
 -2.4060979e-03
 -7.5533404e-05
  8.8126305e-04
  2.6782457e-04
 -1.3942173e-03
  9.2355767e-04
  3.4969382e-04
 -2.6013030e-04
  1.8259988e-03
  1.3871853e-03
 -3.9420719e-04
 -5.5325078e-04
  1.9496841e-03
  1.0749419e-04
 -2.2109598e-05
 -2.9098359e-04
 -8.9174014e-04
 -2.2416939e-03
 -8.1002567e-04
  1.0909546e-04
  1.1021757e-03
  1.4011255e-03
  3.0233203e-03
 -1.7041522e-03
  3.8297698e-04
  1.5731897e-03
 -1.7435541e-03
  1.7973995e-03
  3.6017466e-03
  1.7225323e-03
 -2.0410855e-04
 -1.0107590e-03
  3.7969055e-03
  2.3131466e-03
 -1.3734474e-04
  1.7664898e-03
  1.3120858e-03
  1.2119843e-03
 -6.4815693e-02
  1.6864723e-03
 -1.1454073e-03
 -2.7079545e-02
 -3.5128699e-04
  1.1290978e-04
  3.3149135e-04
 -3.0976351e-04
  6.5568984e-03
 -1.3706504e-04
 -2.3588269e-04
  5.4011075e-03
 -7.0788991e-04
 -1.8589090e-03
 -7.8567711e-05
  1.1936401e-03
 -6.9643103e-04
 -1.7745000e-03
 -2.7585638e-04
 -2.1860560e-03
 -7.8341051e-05
  2.2774406e-03
  3.8774475e-04
  6.0465399e-02
  6.8800926e-04
  9.0291980e-04
  3.2437846e-04
 -7.6872361e-04
 -2.5602052e-04
  3.9903386e-04
 -1.0820287e-03
 -6.4399064e-04
  9.1959573e-06
  1.3346645e-03
  1.3531381e-03
  2.1667409e-04
 -4.3506171e-03
  2.2651311e-02
  6.0605782e-04
  2.7952648e-03
  4.3539205e-03
 -4.4803377e-03
 -2.5393630e-04
  1.1452219e-03
 -2.0141134e-03
  1.3064962e-02
  1.6667068e-04
 -2.7316567e-03
 -7.2809258e-03
  7.0766773e-04
  8.4329461e-04
  9.1353239e-04
  6.5424293e-04
 -8.0316364e-05
  1.5199919e-03
  9.5489033e-04
 -1.1778498e-05
 -1.1742241e-05
  7.1721734e-05
 -6.2703836e-04
 -2.9859163e-03
 -5.1134353e-04
  6.5263184e-03
  2.3560594e-03
 -5.1942619e-04
  1.0016119e-03
 -3.6887341e-04
 -5.8154232e-04
 -1.5906383e-03
  6.1955188e-06
  4.1795854e-04
 -1.1503679e-04
 -1.3884564e-05
 -7.0510837e-03
 -2.6354415e-03
  3.4063414e-02
 -6.7161856e-04
 -1.2445638e-03
 -2.7014329e-03
 -2.8902031e-03
  6.0410048e-03
 -5.9844865e-03
 -6.9945236e-04
  1.2391239e-03
 -1.6042637e-03
  1.3705763e-03
 -7.4587332e-04
  6.6802284e-04
 -1.1942685e-03
  5.1722115e-01
  2.0687433e-03
 -1.3905721e-03
  2.1436403e-03
 -2.5605101e-03
 -2.5826073e-03
  5.2309581e-03
  1.4027584e-03
  3.6883980e-01
  8.6742995e-04
  2.7205937e-03
 -6.9952966e-04
 -7.1545353e-04
 -7.6925248e-04
  6.4355938e-04
 -2.0706677e-03
 -1.6317896e-04
  1.5083398e-03
  1.3345269e-03
  1.6061548e-03
 -7.3031225e-04
  1.1807215e-04
  9.7564317e-04
 -1.2927341e-04
  1.4124875e-03
 -2.7015174e-04
  2.1921189e-03
  1.3380307e-04
 -3.7855830e-03
 -8.1811921e-04
  1.9503017e-03
  2.8329113e-04
  3.7746367e-04
  8.7285822e-04
  1.6450243e-03
  1.1353829e-03
 -7.9581392e-04
 -1.1104443e-03
 -8.4017945e-04
  1.6465705e-03
 -3.2639962e-03
  1.5049080e-03
  6.1311695e-04
 -3.5043957e-03
 -1.7168408e-03
  6.5636664e-04
 -7.1540585e-04
 -6.5609778e-04
  9.2822075e-04
  1.0808592e-05
 -2.6276617e-04
 -1.7407754e-03
 -4.2396673e-04
 -1.1029951e-03
 -4.1080692e-01
  2.3653156e-03
 -2.1153237e-03
 -1.4535703e-03
 -5.0521427e-04
 -1.4648937e-04
  1.4184827e-03
  3.4098800e-03
  1.3693826e-03
  1.1059619e-03
 -5.2172499e-04
  1.7304416e-03
 -2.1555773e-03
  1.0269978e-03
 -1.6667144e-03
 -8.4654352e-04
  6.9703805e-01
 -8.7737042e-04
 -7.2728741e-05
 -2.0036441e-03
  6.0205394e-04
  5.5419025e-03
  1.3380719e-03
 -7.0078859e-05
 -1.2260632e-03
 -1.3100434e-03
 -9.4634743e-04
 -3.3631138e-04
  1.5681119e-03
  4.6435886e-04
 -2.5443954e-03
  2.2987952e-03
  1.9333253e-03
 -7.8897376e-04
 -6.3472994e-02
  1.4332914e-03
  9.1608876e-04
  3.4679080e-04
  1.5660815e-03
  6.6556539e-03
  2.1666118e-03
 -1.3462801e-03
 -1.1375538e-03
  3.6044422e-04
 -7.7016419e-04
  7.5069483e-04
  1.5389497e-03
 -3.5317466e-04
 -9.8741357e-04
  4.0767529e-05
 -2.0725553e-01
 -1.7540196e-04
  3.6416904e-03
  1.7473209e-03
  1.5071536e-03
 -1.0887189e-03
 -3.0654271e-03
  1.1662164e-03
  1.7392894e-04
 -1.1397245e-03
  4.0050640e-04
  2.1616217e-04
  1.8077970e-05
  1.6178499e-03
  3.7154336e-03
  6.8593450e-04
 -1.1587932e-04
 -4.9830572e-04
  1.0474479e-03
  9.0750524e-05
  1.1083244e-03
  3.2219774e-04
  1.5350572e-05
  9.2841110e-05
  9.0623963e-01
 -1.2444600e-03
 -7.5762277e-03
  4.6943079e-04
  8.7905140e-04
 -1.8518779e-03
 -2.6779828e-04
  4.9785658e-04
 -7.4582221e-04
 -2.6026397e-04
  1.0532518e-03
 -3.3886095e-03
  1.0762003e-04
  3.9684186e-05
  3.5715154e-03
 -2.1606954e-04
 -8.1502349e-04
  1.1888932e-03
 -1.5021019e-03
  4.1218413e-04
 -2.0509562e-03
 -1.0115225e-03
  1.2355589e-03
  6.5912085e-04
 -1.3548468e-03
  1.6142896e-03
  1.1627816e-04
 -4.8764760e-04
  1.6027805e-04
  1.3144851e-03
  2.8926050e-03
 -1.6354289e-03
  5.5356082e-03
  7.3313522e-03
  5.5135897e-04
 -4.1004940e-04
 -7.3947238e-05
 -3.4024191e-01
  2.6908969e-03
 -3.8732255e-03
  1.3215914e-03
  1.0738245e-03
  8.9063385e-04
  4.0184648e-04
 -9.3685539e-04
 -1.7460044e-03
  6.4159144e-04
 -5.2654446e-04
 -4.3950271e-04
 -2.2675976e-04
 -3.0881178e-04
 -3.0925040e-04
 -1.1061254e-03
  2.0073405e-03
  2.2079677e-03
  6.7375012e-04
 -2.9110964e-03
  6.5031560e-04
 -1.9444388e-04
 -1.4403882e-03
 -4.8978478e-02
  1.2603797e-03
 -5.1368063e-04
 -9.5379923e-04
 -1.8653312e-03
 -2.2395893e-03
  5.2176090e-03
 -5.3411117e-05
  8.0193119e-04
 -3.2413216e-05
  6.4311596e-04
 -1.9162976e-04
  2.6595479e-04
  1.7781438e-03
 -4.6501021e-04
  1.2658623e-03
 -1.2563098e-03
 -9.6521515e-05
 -1.1571879e-03
  1.8259489e-04
 -4.4993384e-04
  9.9368636e-03
 -3.4904324e-03
  4.5321687e-04
 -1.8434263e-03
  3.2993400e-04
  4.5884438e-03
  9.7703666e-04
  3.7066967e-04
  5.8817380e-04
  3.8929299e-02
 -2.9299981e-03
 -6.5867516e-04
  2.0116945e-03
  2.1127261e-01
 -2.5599816e-01
 -4.3124434e-02
 -6.8032247e-01
 -5.7251777e-02
  4.2792675e-04
 -3.1319717e-03
  6.0662553e-03
 -3.7393722e-01
 -4.5944750e-01
  1.0847842e-03
 -2.3720841e-01
  2.5443723e-02
  9.6612622e-04
 -6.7140228e-01
  3.1014001e-03
  4.4500384e-01
 -9.3526402e-03
 -2.5305528e-02
 -4.5810914e-01
 -1.5077717e-03
  7.6391659e-04
 -3.9330925e-04
 -1.9431034e-03
 -1.7145872e-03
 -1.2877150e-04
 -4.1626909e-01
  6.8327978e-02
  7.5401651e-04
  1.0008005e-03
  8.5986155e-04
  6.1393692e-04
  7.4443840e-03
 -1.9346990e-04
 -3.7835506e-04
 -2.0298036e-03
  9.2908619e-03
 -1.7196000e-02
  1.5686295e-03
 -7.1102951e-04
 -5.0460489e-04
  8.3045692e-05
  3.5343124e-03
  3.6646239e-04
 -1.9717270e-03
 -3.9432980e-03
 -3.6126426e-03
  5.7500550e-03
 -8.2231627e-04
 -8.5550040e-04
  3.0954182e-04
  2.0274021e-04
  1.1971184e-03
  2.4808967e-03
 -7.6980487e-04
  1.5839495e-03
  1.6409638e-03
 -3.0530407e-03
  7.1579730e-04
  1.6040048e-04
  9.4231305e-04
 -2.7667757e-04
 -9.0760062e-04
  1.3584669e-03
 -2.9088471e-03
  1.5331503e-05
  5.2061566e-04
  2.6088426e-04
  1.9179413e-04
 -1.6594728e-03
 -1.1066312e-03
  1.6436630e-03
  2.1269430e-04
  4.8137939e-05
 -5.2095583e-04
 -8.5289200e-04
 -1.0272513e-04
 -1.6263961e-03
  2.2883293e-01
  2.1921773e-03
  1.7379120e-03
  5.2015315e-04
  6.1303133e-04
 -5.8945868e-04
  7.9911657e-02
  1.1094898e-03
  1.5244297e-03
 -1.0127331e-02
 -3.4020368e-03
  9.2078559e-02
 -1.4187593e-03
 -1.0341422e-03
 -2.4089061e-03
  9.5746969e-04
  1.1592541e-03
 -2.3278284e-04
 -1.5092617e-03
  1.7434951e-02
  4.8097235e-04
 -1.4075415e-03
 -2.8539929e-05
  6.4244162e-04
  4.8460657e-04
  1.0229505e-03
  4.5965560e-04
 -2.5236798e-03
  1.3152700e-03
 -5.9512595e-04
  5.2251876e-03
  3.1459534e-03
 -1.3481408e-03
  1.1848352e-03
 -1.8389835e-03
  5.0547981e-04
 -1.6400220e-03
  8.8799628e-04
  1.4087446e-03
 -3.2313998e-05
  4.9414637e-05
 -3.9374497e-04
  2.1702752e-03
 -3.4030685e-03
  5.2041345e-04
  2.0511528e-03
  2.2795291e-03
 -1.0584618e-01
  7.7252455e-02
 -4.7890187e-04
  3.6019224e-01
  2.4614273e-02
  5.8105529e-06
  2.6390736e-03
 -1.1431695e-03
  1.2681809e-01
  2.0062269e-01
 -1.2825299e-03
  7.1568929e-02
 -6.0652620e-01
 -3.0246573e-03
  3.6348408e-01
  8.6741772e-04
 -2.8385925e-01
 -1.5628010e-02
  2.9513305e-03
  1.8549886e-01
  4.4426378e-03
 -1.4072367e-03
  3.7229387e-05
 -9.8816061e-04
  2.3429390e-04
 -1.5334362e-03
 -1.7497396e-03
 -4.6202462e-04
 -1.3352737e-04
  3.2191842e-03
  2.5035863e-04
 -8.9634705e-04
  5.0042942e-04
  3.2751723e-03
  2.7274434e-03
  4.2684791e-03
 -1.3190843e-03
 -2.0128994e-03
  1.7094030e-03
 -1.1580216e-02
 -1.5851059e-03
  1.2295053e-03
 -3.0083267e-04
  7.6820934e-04
 -1.8549930e-04
 -8.7745197e-05
 -5.4128386e-02
  1.7676725e-03
  1.8343009e-03
  1.2019239e-03
  2.5086945e-03
 -1.7263882e-03
 -2.3369448e-05
  4.0742052e-03
 -1.6721135e-05
  1.2830489e-03
 -1.4541310e-03
 -5.7946204e-04
  3.8820510e-03
  1.7792846e-04
 -1.7675990e-04
  8.7113742e-04
 -4.7698984e-04
  3.2922841e-04
  8.2944159e-04
  1.1204524e-01
 -2.2993165e-03
 -1.2243583e-03
  2.3790831e-03
 -4.4887996e-04
 -3.1667696e-03
  3.6290598e-01
 -3.3739142e-03
 -1.0343342e-03
  6.7158818e-04
  3.6870979e-04
 -2.3884731e-03
 -3.7886674e-04
 -1.5681692e-04
 -2.8012150e-03
  8.1439008e-05
  1.9354819e-03
  1.4722272e-03
 -2.0354472e-03
  1.8553437e-03
 -7.1794383e-02
  7.0211454e-04
  9.5400907e-04
 -4.0680304e-04
  3.4726528e-04
  4.5190047e-04
  8.3190989e-04
 -4.3537458e-03
  3.1364304e-03
  5.8189242e-05
 -5.8742613e-04
 -1.9803464e-03
 -5.6804123e-04
 -6.5586314e-04
  6.7615078e-04
  8.0536318e-04
 -2.7817296e-05
  1.0899199e-03
  8.3653649e-05
  1.2052327e-03
 -4.9284721e-05
 -1.6682011e-04
  8.6495723e-04
 -4.1877854e-04
  4.1661370e-03
 -3.9418954e-03
 -4.9623422e-04
  6.9294841e-04
  5.2314932e-03
 -1.2994519e-03
  7.4714463e-04
 -2.8857987e-04
 -1.4257852e-04
 -3.3216097e-03
 -1.2272451e-04
 -5.9240521e-04
 -1.2332131e-04
  1.2377017e-03
  2.1508578e-03
 -2.1174676e-03
  2.9501335e-03
 -2.3378616e-03
  1.5445556e-04
  6.8139983e-04
 -8.0821099e-04
  2.6598778e-03
 -3.6330533e-04
  2.0478091e-04
  5.0607231e-04
 -1.1216835e-03
 -5.7587371e-05
  3.3547080e-03
  4.5774463e-03
 -9.3894644e-04
  1.6313115e-04
 -1.7256225e-03
  3.8350902e-03
  5.4523523e-04
  8.2600798e-04
  9.6765917e-04
  3.3503305e-03
 -1.0333103e-03
  2.6503525e-04
  5.0871220e-04
  1.6857431e-03
 -5.9152942e-04
  1.1733365e-03
 -7.0017710e-04
  1.2088942e-03
 -1.4144302e-03
  1.0599181e-02
 -1.0047851e-03
 -7.9230545e-04
 -9.3447067e-02
 -2.3648937e-03
  5.7805507e-03
 -5.4209661e-02
 -1.1012815e-03
 -5.6142570e-04
  1.9344889e-02
  6.6126109e-04
  2.8188291e-03
  8.2814426e-04
 -2.7899933e-04
 -5.3889104e-03
  1.3241145e-03
 -1.6382044e-04
  1.9766630e-03
 -1.5075407e-03
 -4.4229135e-01
 -9.0053823e-04
  2.5450106e-04
 -1.0168721e-03
  1.5553887e-04
  7.3341717e-04
  9.6119737e-04
 -5.0602271e-04
 -1.4037377e-03
  3.8853891e-03
  7.3750870e-04
 -1.7306542e-03
 -8.2194892e-04
  1.8419960e-04
 -1.3749942e-03
 -1.4822179e-03
  2.0168782e-03
 -2.5451700e-03
  1.2430282e-04
  1.4075453e-02
 -1.4562478e-03
 -4.2273177e-04
 -1.4491292e-03
  3.1529253e-04
  8.2858104e-01
  8.0451660e-05
  3.7413656e-03
 -3.2129481e-02
 -1.3160297e-02
 -2.7678391e-01
 -4.9902052e-02
 -5.4172445e-03
 -1.0594276e-03
  3.1826593e-02
 -1.2934640e-01
 -1.5594043e-01
 -5.1467580e-04
  1.4544466e-04
  7.3583317e-01
  1.2617388e-05
 -3.0310485e-01
  7.0007262e-04
  2.7922347e-01
  1.0370661e-01
  9.2755986e-04
 -1.0439716e-01
 -1.2653871e-02
 -5.0932351e-02
  3.0836380e-01
 -1.4510917e-03
 -1.0730742e-02
 -2.3717844e-01
  5.3933930e-01
  2.4235067e-03
  1.3209431e+00
  7.4851018e-01
  3.0432589e-04
  1.3671266e-01
  8.4144948e-03
  6.4750063e-01
  9.3944860e-01
 -2.2630348e-04
  6.4250427e-01
 -2.8767195e-01
 -1.0821400e-01
  6.7376673e-01
 -2.1515058e-03
 -4.2638645e-01
 -4.6966206e-03
 -7.8026718e-04
  9.1366595e-01
 -3.0391316e-03
 -1.6174589e-03
  1.1245398e-03
  2.0834708e-03
 -1.2501942e-01
 -2.5569841e-01
 -1.9258513e-03
 -1.1995488e-05
  6.7833601e-04
 -3.3937076e-03
 -8.0605131e-04
 -4.7209916e-05
  6.0923654e-03
  7.1785785e-03
  2.0071716e-04
  2.9047707e-04
  5.6938047e-04
  5.0466371e-01
 -6.9425529e-05
  5.5665284e-04
 -1.2744400e-03
  1.2743220e-03
 -8.7573810e-04
  6.2311721e-01
 -9.0668391e-04
  1.7334752e-03
  1.1274737e-03
 -1.0452494e-03
  1.8131903e-03
  2.1498508e-03
 -3.3897630e-04
  4.7853100e-03
  3.4570771e-03
 -2.9430608e-04
  1.5963953e-04
  3.8529837e-03
 -2.4439508e-01
 -2.0668458e-03
 -1.5083520e-03
  3.7172399e-04
 -8.4771417e-02
 -2.5140038e-03
  4.3768792e-05
  1.9147755e-03
  2.2388839e-03
 -8.7777700e-04
 -5.7023385e-04
  1.9994276e-03
  1.4184871e-04
  1.3366698e-02
  5.7751244e-01
  1.0449811e-03
 -1.0437746e-01
  2.2879365e-01
 -1.9315253e+00
  1.5579047e+00
 -3.7806330e-03
  4.4104044e-04
  1.6390205e-03
 -1.8724136e-03
 -6.8697077e-01
  3.3091626e-04
  1.5679859e-03
  8.6127088e-04
 -1.6606469e-03
 -7.3263240e-03
 -5.7857600e-04
 -1.8998399e+00
  1.2786637e-01
  7.2211924e-04
  6.0855568e-04
 -1.4861862e-04
 -1.0909823e-03
 -9.9137706e-06
 -1.6298467e-01
  2.3852915e-01
  2.4852300e-02
  1.6950969e-01
  1.0355600e-01
 -6.0940144e-04
 -1.0775212e-03
  4.0577087e-04
  1.5227513e-03
  2.3631278e-01
  2.3221143e-03
 -9.5349108e-04
 -1.5944045e+00
 -3.5831884e-03
 -3.4033721e-05
  3.1654630e-02
 -5.2485469e-04
  1.0490483e+00
  2.4588346e-03
  6.6596817e-04
 -8.8142074e-04
 -2.0918399e-03
  1.6139796e-03
 -7.0705917e-03
 -1.3265844e-03
 -9.6741247e-01
  2.8139029e+00
  3.1051917e-03
 -1.2984722e-04
  1.5884760e-01
  2.3078190e-02
 -6.4327545e-03
  6.8275952e-01
 -1.5430934e-04
  6.9051618e-03
  7.0128851e-03
  4.0480359e-03
  5.7422978e-01
  5.4107923e-03
 -3.1370804e-02
  1.0852857e-03
  9.8429946e-04
  6.8711507e-01
 -3.6254982e-04
  5.3078833e-04
  8.3554909e-04
  2.9153258e-01
  2.3210186e-01
  5.9935200e-04
  1.0653512e-03
  5.2720302e-04
  3.4533737e-03
  2.7294079e-04
 -1.8429044e-05
 -9.2029812e-05
 -6.9191257e-05
  1.1144306e-03
 -2.0514231e-03
 -9.4498089e-04
  1.6161281e-04
 -1.0808053e-03
  7.2113593e-04
  9.7364397e-04
 -1.1788497e-03
 -1.9229799e-04
 -3.0085468e-04
  1.2835430e-04
  5.9702300e-04
  1.8151887e-04
 -9.6461219e-05
  4.2394218e-03
 -1.0032298e-03
 -4.9162353e-04
 -2.4364296e-04
  1.1051998e-04
  1.1779473e-04
  7.1259431e-04
  5.2372929e-02
  4.4693388e-02
 -1.2155496e-01
 -3.2742897e-01
  5.8440405e-01
  9.0982729e-05
  1.6471648e-01
  1.2968305e-03
 -1.9391057e-01
 -3.5561165e-01
 -9.5965910e-01
 -4.3288863e-01
  1.0683366e+00
 -4.4191472e-04
  4.0952712e-03
 -1.1204766e+00
  3.4740964e-01
  3.5747471e-01
 -1.1813330e-02
 -6.5839851e-01
  7.6720014e-02
  5.5552800e-03
  1.1141738e+00
 -1.9104004e-02
  1.5528806e-03
  1.0059932e-03
  1.4070957e-03
  1.0676767e-03
  8.3864741e-02
  1.4494982e-03
  9.2710397e-05
  8.4105384e-04
 -2.0358614e-03
  2.8652123e-03
  4.5260731e-03
 -1.0817798e-03
  1.3582666e-01
 -2.8717765e-03
 -2.8426517e-04
  3.0026664e-05
 -2.5257403e-03
 -5.7086820e-04
  1.5983366e-03
 -2.9285576e-03
 -6.7083444e-04
 -6.1558079e-05
 -4.5629960e-04
 -8.3886128e-04
 -5.9736250e-03
  5.5950048e-04
 -6.5972452e-04
 -3.1926313e-03
 -1.4586095e-03
 -1.6566914e-01
  1.2383750e-03
 -1.1510648e-03
 -1.3336686e-04
 -4.2954455e-03
 -1.0410559e-03
 -2.2872553e-04
  1.5763021e-03
 -1.7179741e-03
  5.7207508e-04
 -4.6459452e-04
  2.1076137e-03
 -1.3921715e-03
 -1.4243915e-03
  3.9936652e-04
  1.2920557e-04
 -1.0065042e-03
 -6.9421316e-07
 -3.8941631e-01
 -2.3280858e-04
 -1.5000591e-01
  6.7487272e-04
 -3.1688728e-04
  3.1437915e-02
 -4.5856435e-02
 -5.7577970e-04
  7.4361455e-01
 -6.6392355e-02
  3.6381255e-03
 -1.4860060e-03
 -2.7143885e-03
 -5.5774082e-03
 -3.7660345e-01
 -1.0309616e-01
  3.0524689e-01
  2.9103999e-04
 -3.6923011e-05
 -8.4338528e-01
  2.1445084e-01
  1.8503729e-01
 -3.3506218e-04
  1.1628711e-01
 -5.2942988e-04
 -6.7209161e-04
  3.8145873e-01
 -4.2723999e-03
  1.2937639e-04
  2.5396259e-04
 -9.0911944e-04
  2.6624640e-02
  1.8691193e-04
 -1.9533187e-01
  8.6073533e-02
 -5.0724071e-02
  6.4387381e-02
  1.0566898e-02
  9.2522955e-01
  6.1713690e-01
  1.3334061e-01
 -1.4633541e-01
  1.4880311e-03
  2.9937649e-04
  1.8980351e-01
 -1.5242909e-01
 -2.0029144e-02
  1.7177687e-03
  9.3632806e-03
  8.2792708e-04
 -2.0372546e-03
 -5.5408709e-02
  5.8705523e-04
 -3.3480363e-05
  1.1882610e-03
 -3.1635046e-01
  8.3875850e-02
  1.9681009e-03
 -3.3822653e-01
  3.5942200e-01
 -2.2182451e-03
  4.9952459e-02
  6.2946673e-03
  1.9543929e-02
  7.3743814e-01
  1.7169610e-01
 -2.5842413e-01
  9.8306891e-03
 -1.1366499e-03
  1.9977021e-01
 -2.2500524e-01
 -2.0661943e-01
  6.8202714e-04
  5.0679050e-02
  8.1220316e-04
 -1.5278694e-03
 -6.7260996e-02
  1.9050455e-02
  1.3818640e-03
 -4.3036373e-04
 -2.4248695e-03
  2.8204990e-03
 -7.6604541e-04
  3.3959918e-04
  1.3138840e+00
  2.5037264e-03
 -1.8600877e-04
  2.9262365e-03
  1.8624946e-03
  7.0747882e-01
 -1.6156965e-04
  4.5948426e-04
 -8.8553427e-04
  1.0432593e-03
  1.0247315e+00
  2.6159522e-03
 -5.3093354e-03
  3.4114129e-03
 -1.8009747e-03
  8.2944411e-01
 -1.5847068e-04
 -2.4494159e-03
  8.2997204e-04
  1.4994271e-03
  1.9113105e-04
 -4.8021162e-01
  5.3273528e-03
 -6.7973444e-03
 -5.0101981e-02
  2.5535011e-01
  1.8124597e-04
  6.4168923e-02
  7.9075398e-04
  2.6615018e-01
  1.1884440e+00
  1.2327177e-02
 -3.6922294e-01
 -1.9184005e-03
 -6.3757377e-04
  5.7480347e-01
 -2.2650013e-02
 -1.3873123e-01
 -2.7326183e-04
  1.4765725e-02
  5.4168675e-02
 -5.8268932e-05
 -4.6246599e-02
 -5.3246516e-01
  2.8416908e-03
  1.0699305e-03
 -2.8944034e-03
 -8.5207459e-04
  1.1506296e-03
  2.2371670e-03
 -3.9055001e-04
 -2.1010020e-03
 -1.8638193e-04
  8.9676294e-04
  3.6310077e-01
 -8.7185449e-04
 -1.1239301e-03
  9.5688173e-04
  2.0716032e-04
  9.2975539e-04
  2.2728918e-03
 -3.3393765e-03
 -7.7414428e-05
 -8.5642110e-05
 -1.2291936e-03
 -1.6588453e-03
  3.0952245e-03
  3.7016696e-03
  1.6192380e-04
  3.2149017e-04
 -1.3995857e+00
 -4.8080184e-02
 -2.9092294e-01
 -6.1912171e-04
 -1.4095544e+00
  6.3964427e-01
 -1.0775664e+00
  2.5670725e-01
 -5.0403835e-04
  1.8916678e-01
  9.5456463e-01
  8.3207615e-02
 -5.9652150e-01
 -1.0611054e+00
 -1.3052685e+00
  4.8636362e-01
 -1.8102859e+00
 -1.1575216e+00
  1.8611941e-02
  5.2706923e-02
  2.0900659e-01
 -5.2833164e-01
 -7.1603948e-01
  2.2680406e-03
 -8.8339412e-01
 -2.9310142e-04
  2.0296841e-04
  2.7754045e-01
  3.6170080e-04
 -7.7176768e-01
  9.2025414e-02
 -6.5034977e-03
  9.6523091e-02
  6.6135437e-03
  9.1478206e-02
  6.5256470e-01
  9.2591546e-02
 -3.1254616e-01
  3.9816620e-03
  1.2405032e-03
  4.2244169e-01
 -5.1370096e-01
 -9.0323496e-01
  2.0581307e-03
  1.3197416e-01
  8.7891566e-03
  7.4467895e-04
 -1.6979747e-01
  2.1674803e-03
  2.4994011e-03
 -8.8296154e-05
  1.0882169e-03
 -5.1295472e-04
 -3.4914451e-04
  8.6644047e-04
  4.0831380e-03
  2.9125297e-03
 -5.9844396e-04
 -2.3080474e-03
  5.2798889e-03
  3.8679019e-03
  1.6532051e-03
  1.5401370e-03
  2.5570992e-04
  1.9616941e-03
 -8.6291606e-04
 -4.9676211e-04
  2.1372263e-03
 -3.5223074e-04
 -4.6227864e-04
  1.7752658e-03
 -1.3466028e-04
 -1.1371387e-03
 -1.2860787e-03
  1.6707440e-03
 -3.4860455e-04
 -2.1610931e-04
 -3.8003373e-01
 -3.9030085e-04
  9.5842453e-03
 -1.5925984e-01
  3.9149877e-03
 -1.6874903e-01
  2.0740724e-01
  6.2119210e-04
 -3.3822948e-01
  8.0973603e-04
  5.0413376e-03
 -6.1698747e-03
  1.6852878e-03
 -2.2595519e-01
  3.3349185e-03
  4.8109263e-01
 -6.6538385e-05
 -1.1044989e-02
 -5.6918534e-03
  5.1935512e-04
 -5.4474518e-04
  1.0261897e-03
 -2.4817833e-03
 -2.4434878e-03
  2.8269065e-03
 -5.6933460e-04
  5.1120641e-03
 -1.7534340e-02
  1.2689067e-02
 -1.1537685e-03
 -1.2040091e-03
 -1.0033090e-03
  1.0909218e-03
 -8.2119851e-04
 -6.0252892e-04
 -2.0493918e-04
 -1.3268499e-03
 -3.6472184e-04
 -2.0211028e-04
  3.5316793e-03
  2.9824134e-03
  1.1293104e-04
 -1.9459311e-03
  1.8608036e-04
  7.0753723e-04
 -1.9873569e-03
  9.4309408e-04
  6.9131231e-04
  9.7348122e-04
 -6.9994869e-04
  9.8861859e-04
 -7.7288982e-04
  2.3243262e-03
 -1.1126127e-03
  2.5150641e-05
 -2.6059994e-03
 -2.5399232e-03
 -1.7180076e-03
 -5.0950464e-04
  3.2087284e-04
  5.1694568e-03
 -2.0337040e-03
 -4.4144411e-03
 -1.0849173e+00
 -1.1372655e-03
 -1.5597523e-03
  4.5425861e-04
  1.7091241e-03
  6.1251293e-04
 -3.6194548e-03
  5.4928410e-04
  3.4297447e-04
 -7.2755059e-04
 -7.2381453e-04
  1.8236914e-03
  3.5756538e-04
 -4.4441919e-04
  5.2683684e-04
 -3.7180481e-04
  2.2179715e-03
 -5.5639248e-04
  7.4310391e-04
  5.0085769e-03
  3.9035940e-04
 -8.7565248e-04
  3.4487729e-03
 -1.3734332e-04
 -1.9227872e-03
 -3.0371426e-03
  1.3130059e-03
  8.8960933e-04
  3.5547363e-04
  1.5582948e-04
 -3.8871270e-01
  7.2950625e-04
  9.8381122e-04
  1.4462590e-03
  2.2340480e-03
 -1.1466178e-03
  2.3227923e-04
  1.4491071e-01
 -1.1082082e-03
 -1.0326297e-01
  3.1570324e-01
 -1.8885123e-02
  1.2059965e-02
 -1.5996525e-04
  7.2638355e-02
  4.2859489e-01
  7.9337530e-02
 -1.2906811e-01
  5.4093020e-04
  3.0131694e-03
  3.7272099e-01
 -7.1522874e-01
 -6.9336519e-02
  1.0467033e-03
  8.4127067e-03
  3.1481043e-04
 -1.6325582e-03
 -1.0329356e-02
 -1.9374317e-03
 -1.3786113e-04
 -2.7175623e-03
  2.9782015e-03
  1.4978305e-04
  6.0988027e-01
 -9.0537511e-04
 -1.1719742e-03
  8.6623790e-05
 -5.3559570e-04
  9.3806029e-04
 -2.7876958e-04
  2.8355306e-04
  3.8022560e-04
  1.4957211e-03
  2.1148469e-04
 -3.0385898e-04
 -1.7301857e-03
 -2.0725301e-01
 -3.3268574e-04
 -4.5672804e-04
  1.8562000e-03
  6.8217906e-04
  1.8758527e-03
  1.0223449e-03
 -9.7318314e-04
 -1.9644401e-03
 -1.5625482e-03
 -3.3568405e-02
  1.3318950e-01
  3.9274483e-03
 -5.0977236e-01
  7.8351006e-02
 -8.5378736e-02
  2.0490857e-03
  4.7069173e-02
  1.4287317e-01
  1.1043123e+00
  2.3902483e-01
 -4.5912695e-01
  2.1273175e-03
 -7.0422109e-05
  5.2174091e-01
 -1.5747234e-01
 -6.4227521e-02
  4.1967914e-02
  5.2441914e-02
 -5.9283935e-03
 -2.3366567e-03
 -1.1193389e-02
  7.4074171e-03
  1.1746219e-03
 -1.3494124e-03
 -3.3732053e-04
 -2.2134782e-05
 -8.3250692e-05
 -1.2619767e-03
  3.1491314e-04
 -2.0560711e-03
  1.4588842e-03
  2.5578146e-03
  2.5539284e-03
  1.2895260e-04
 -5.4616588e-03
 -3.7247004e-04
  4.1065221e-03
 -4.6301131e-05
 -9.7543653e-04
  4.7134574e-05
  5.0422198e-01
  2.2928764e-07
  3.8541021e-04
  2.9054869e-03
  1.4680970e-04
  2.3200507e-03
  2.6154306e-04
  1.0924054e-04
 -2.3904675e-05
 -3.5252117e-04
 -3.6511407e-04
  8.9425745e-04
 -3.7388350e-03
 -5.4095119e-05
  2.5271051e-04
  7.8620919e-04
  1.4597466e-03
 -3.0801247e-03
 -1.3524119e-04
  2.0754603e-03
 -1.5123660e-03
 -9.7119564e-06
 -5.0842989e-04
 -3.3491600e-04
  4.3002478e-04
 -8.3122501e-04
  1.7796597e-04
  1.0543339e-03
  6.4452086e-04
  8.8968617e-04
  3.7145142e-03
  3.1855037e-03
  3.9610243e-04
 -2.1584092e-03
 -3.7705697e-04
 -1.4891452e-03
 -1.8386759e-03
  2.8459472e-04
 -3.6997229e-04
 -1.5668490e-03
  7.8415044e-04
 -2.1303217e-03
 -1.4418488e-03
 -2.3733447e-03
  5.3469109e-04
  1.4122293e-03
 -3.4441589e-04
  4.5040812e-04
 -1.3567054e-03
  1.3184266e-03
 -1.3820160e-03
  1.4949017e-04
 -4.3168548e-03
 -8.9962722e-04
  1.4047667e-03
 -1.2149079e-03
 -3.5353007e-03
 -6.2618952e-04
  3.7712933e-04
 -1.3484213e-03
  2.9081635e-03
 -1.4427158e-03
 -3.9230376e-03
  3.3271289e-04
  1.9961456e-04
 -3.7880098e-05
 -9.3401654e-04
 -9.2726329e-04
 -3.9383688e-04
 -2.1635729e-03
 -5.6012603e-04
  1.7160263e-03
  2.9914326e-04
  3.7087232e-04
  3.0786140e-04
  3.0037921e-03
 -1.3406524e-03
 -4.0889522e-03
 -2.0651963e-05
 -5.1180185e-05
 -4.5285588e-03
  2.0621922e-03
 -2.3822719e-04
 -4.9322043e-02
 -1.8772941e+00
 -1.2135097e-03
  2.8527353e-03
 -5.8321065e-01
  3.4321138e-01
 -1.5058501e-02
  2.2023587e-02
  1.3201819e-02
  4.0105708e-02
  5.0122184e-01
  2.9453912e-01
 -3.6849234e-01
  4.2985799e-03
 -4.3560300e-04
  2.2464530e-01
 -2.6271561e-01
 -1.9685276e-01
  3.6335748e-03
  2.0585468e-02
 -4.4042775e-03
 -8.9166843e-04
 -9.5883913e-02
  2.3783611e-02
 -4.4760567e-01
  2.3396453e-04
  1.7174581e-03
  1.2754117e-03
  7.5793726e-04
  5.8367715e-04
  5.9458573e-04
 -7.6540367e-04
  1.3178257e-04
 -4.3572311e-04
 -2.8119341e-03
 -1.6427365e-03
 -3.5494645e-03
 -8.3582808e-04
 -1.0955494e-03
 -2.9602121e-03
  2.1956701e-04
  7.4598176e-04
  1.0596369e-03
 -2.8860464e-04
 -3.4467550e-04
 -1.3052830e-03
  2.9188755e-04
 -6.2221143e-04
 -1.7317191e-04
 -1.9534705e-04
  1.8153853e-03
  7.9760212e-05
 -2.9164489e-02
  5.9437350e-04
  1.9344480e-01
 -3.7595013e-01
  1.2231751e-03
 -3.3157412e-04
 -1.3989835e-03
 -4.9504167e-01
 -6.6471875e-01
 -8.4211066e-02
  1.0545892e-01
  6.3021207e-04
 -4.7528619e-04
  5.8273131e-01
  9.7131478e-03
  8.4542483e-03
 -3.3113282e-04
 -5.1680554e-02
 -1.1530608e+00
  1.3513989e-03
 -1.9194193e-02
 -7.5728202e-04
  3.4207635e-04
 -3.5697610e+00
 -3.0667546e+00
 -2.7518971e+00
  7.7580845e-01
 -1.1492195e+00
 -5.1156376e-02
 -5.6500900e-01
  6.0907477e-01
 -1.6247221e+00
 -4.7851503e-02
 -1.3369472e+00
 -3.7231782e-01
  1.2035251e-01
 -9.3668157e-01
 -4.9524456e-01
 -4.1609520e-01
 -6.9738579e-01
  4.3582652e-02
 -1.0729455e+00
 -1.1859316e+00
 -6.5066457e-01
 -4.7954288e-01
 -7.5708991e-01
 -1.2022077e+00
 -1.2950387e+00
  6.4106454e-05
  1.9404056e-04
  1.9074319e-04
 -1.1486915e-03
  4.3929051e-04
 -7.3840223e-05
 -6.2312052e-04
  4.7638383e-05
 -1.3229458e-03
  6.6493906e-04
 -1.1549242e-03
  6.2911958e-03
  5.4849376e-04
 -4.2746025e-03
 -1.5001118e-03
 -5.8540900e-04
 -1.4539129e-03
 -1.8060748e-03
 -7.8733597e-04
 -1.7353739e-03
 -1.6405793e-05
 -3.0065214e-04
  1.8122729e-03
  9.1394191e-05
 -1.7328758e-03
 -4.8475093e-03
  2.4690549e-04
 -1.7830402e-03
 -1.6901054e-03
 -2.3414448e-03
 -7.2034835e-03
  9.9996245e-04
  5.4102577e-04
 -1.1419583e-04
 -1.8601877e-03
  5.0136395e-04
 -1.3257744e-03
  4.8894109e-04
 -6.2124268e-03
 -7.7771605e-04
 -7.3622586e-04
  1.4266673e-04
  1.6111122e-04
 -2.1828727e-03
 -2.4799546e-03
  1.1656628e-03
  1.9824374e-04
  1.9065496e-03
 -5.3392304e-04
 -1.9043271e-03
  2.0128902e-02
  7.5259101e-01
  4.7224818e-05
 -1.3506254e-04
  1.0771861e+00
 -1.4458713e-01
  7.7121370e-02
  3.9815487e-04
 -2.0551071e-02
 -1.8021424e-01
 -7.1313488e-01
 -8.7952793e-02
  5.2606428e-01
 -6.7548382e-01
  8.3335902e-04
 -4.3263093e-01
  5.9265065e-01
  2.5996414e-01
 -1.7653365e-02
 -6.9283344e-02
  7.0771144e-04
  2.1581084e-03
  4.3786205e-02
 -1.6772939e-02
  8.4089587e-04
 -5.7565058e-03
 -9.4471231e-02
  5.6584515e-05
  2.9744971e-01
  2.0302499e-03
 -9.4880373e-04
 -1.2328501e-03
 -8.2337653e-04
  1.4218835e-03
 -5.6213909e-04
 -3.3672422e-05
  3.6548579e-03
 -1.9247116e-03
 -2.5745858e-05
  1.0436837e-04
  1.8322679e-03
  2.8872048e-03
 -2.0481435e-04
 -9.4929070e-04
  1.4150805e-03
 -5.0915143e-04
 -6.9503565e-03
  6.3151434e-05
  9.5817144e-04
  9.1009605e-04
  4.6572092e-04
 -8.0673303e-03
  3.5943862e-04
 -2.9643576e-03
 -8.8274467e-04
 -5.9905253e-02
  2.8238345e-03
 -1.7114227e-03
 -1.7829603e-03
 -6.3508248e-04
  3.1598954e-04
  3.0932896e-04
  2.7711613e-03
 -4.7911797e-04
  7.3164655e-04
 -4.4600149e-03
  1.6452176e-03
  1.9313139e-03
  5.3241075e-04
 -6.5462345e-01
 -1.3345556e-03
 -6.8082992e-04
  1.1068869e-03
 -3.9779261e-04
  2.1146727e-04
  1.0129013e-03
  9.2202447e-02
  1.5472190e-03
 -7.0998521e-04
 -1.3303190e-03
 -1.8595322e-03
 -4.3384042e-03
  1.5258023e-03
  2.7800724e-04
  4.5350703e-04
  7.9375418e-04
  3.6127062e-03
 -5.0693343e-04
  7.2875974e-04
  1.8693786e-03
 -2.1824953e-03
 -9.5240517e-05
 -9.0842217e-04
  7.0446433e-05
 -6.4088037e-04
  5.1682442e-04
 -2.3524443e-04
  1.0799689e-03
  7.7040642e-01
  9.2279731e-04
  1.0074384e-03
 -1.0329460e-04
 -6.5166166e-04
 -1.6793786e-03
 -1.7227136e-03
 -4.0140050e-04
 -1.3762064e-03
 -2.4312441e-03
 -1.9185222e-04
 -2.7532885e-03
 -6.9545466e-04
  9.4678653e-05
  7.8148313e-04
  3.0850463e-03
  2.1774021e-03
  7.8836484e-03
 -1.4237227e-03
 -1.1674991e-04
 -1.3832079e-03
  1.2981773e-03
  9.1392384e-04
  1.4053818e-03
 -1.5002878e-04
  1.8605763e-03
  2.5780390e-03
 -1.0313817e-04
 -1.8783041e-03
 -7.5039472e-03
  1.9114804e-03
 -1.6233892e-03
 -2.1243396e+00
 -4.9113459e-04
 -1.2755746e-04
 -8.0638780e-04
  1.4338312e-03
 -8.3042663e-01
  4.7884800e-04
  4.9590878e-04
 -5.3236778e-03
 -1.7730492e-03
 -1.3985960e+00
  1.5531385e-01
  3.1898191e-04
  1.4164548e-03
  9.9093432e-04
 -1.3795322e+00
 -2.1799690e-04
 -2.1879729e-04
 -4.4176481e-03
 -2.4245113e-04
 -6.2597019e-04
  1.1966096e-03
 -1.3367710e-02
 -2.7001227e-04
  3.4848005e-02
 -4.7736493e-01
  1.5463820e-04
 -2.8517537e-03
 -3.7602667e-02
 -9.2729008e-01
 -6.2375635e-01
 -2.7106840e-02
  1.2631963e-01
 -2.4958602e-03
  1.0933944e-03
 -5.9320146e-01
  7.8588016e-03
  1.3967309e-03
 -1.6511091e-05
 -1.3428102e-01
 -1.9273594e-01
 -1.3966180e-03
  2.0151360e-02
 -6.0602450e-03
 -8.5889352e-03
  1.1664644e-03
 -1.7803453e-03
 -7.5853302e-04
  1.2835056e-03
 -1.1805606e-03
 -2.0753783e-04
 -2.9236150e-03
 -1.5784253e-04
  8.5967843e-04
  1.2428972e-03
 -4.2650453e-04
 -1.3770149e-03
 -1.6076808e-04
  3.1809004e-03
  6.1872933e-04
  1.9046188e-04
 -1.0848674e-04
 -3.9356174e-03
  2.1715541e-03
 -2.1025836e-03
 -4.1537883e-04
  7.8972444e-05
 -3.3736776e-04
 -1.5336158e-03
  1.8126358e-03
  1.1355643e-03
  5.0976244e-04
 -3.8156060e-03
  4.4033985e-04
  3.9147772e-04
 -2.0978838e-04
 -7.0358962e-03
 -4.2520039e-04
  1.7504630e-03
  7.6867320e-04
 -6.1812397e-04
  1.0522093e-03
 -4.6903981e-04
 -1.2834740e-03
  6.9534517e-04
  1.5415734e-02
 -3.2336328e-03
 -1.0097041e-03
 -2.7245472e-03
 -2.9006970e-04
  4.7709263e-04
  3.1400722e-01
 -6.8086322e-04
 -1.0231198e-03
 -2.7415063e-05
  1.2307297e-02
  2.3530133e-01
 -5.7545141e-03
 -1.8900676e-03
  4.5479581e-01
 -2.3836829e-01
  1.6292192e-03
 -1.3880645e-02
 -2.2062118e-04
 -7.8891627e-02
 -4.5052606e-01
 -2.8368814e-02
  1.5369697e-01
  3.1049806e-04
  7.1160001e-04
 -2.8559500e-01
  1.7824686e-01
  2.3949200e-02
  4.6782636e-05
 -1.7764136e-02
 -1.3047756e-01
  3.4134213e-03
  3.7527978e-03
 -1.2324590e-01
 -6.4782007e-04
  4.6446157e-04
  1.7062830e-03
 -1.0695923e-03
 -7.6590467e-04
  1.4774807e-03
  2.9247392e-03
 -2.0993629e-04
  3.5112216e-03
  2.9414397e-04
 -1.9940776e-03
 -5.1901187e-03
  1.0015138e-03
 -6.4449885e-04
 -3.2045331e-03
  3.1458554e-04
  5.0609134e-04
 -1.3189618e-02
 -8.5961568e-04
 -1.9548875e-03
  1.3655402e-03
  1.7941564e-03
 -1.0441389e+00
  1.8041992e-03
 -6.4385374e-04
  1.1277141e-03
 -3.2423440e-02
 -6.8948127e-04
  1.9857835e-03
  2.4343793e-04
 -4.8488527e-04
  1.0533068e+00
 -1.0169001e-04
  5.2322168e-04
  5.7710311e-04
  1.5230171e-02
  1.7847015e-02
 -2.3464073e-04
 -4.8644748e-03
  2.3482261e-04
 -4.5834665e-04
  9.0203834e-01
 -4.7346938e-04
 -2.1328065e-03
  4.0335563e-04
 -3.0245874e-03
  6.4683861e-01
 -1.2424173e-03
 -4.1203620e-04
  4.3482347e-03
  4.3905273e-04
 -6.3383911e-04
 -1.5253774e-03
 -2.0890932e-03
 -3.2862084e-04
 -1.3568543e-03
 -4.8807766e-03
  2.2040978e-04
 -2.3119005e-03
 -1.4415379e-03
  4.5671873e-03
  1.0572847e-04
 -3.1927696e-01
 -7.8647787e-04
 -1.7177447e-03
  7.3130627e-04
 -5.1020156e-04
  4.3453040e-04
 -7.4496045e-04
 -7.2249526e-04
  4.5441370e-04
 -4.5112297e-03
 -4.8838434e-04
  1.5730307e-03
 -1.7083935e-03
  6.5790919e-05
  3.5117029e-03
 -1.7259748e-03
  1.5352396e-03
 -3.3672170e-03
 -7.7473902e-04
 -6.8298727e-04
  3.5267838e-04
 -1.0606442e-03
  1.9706925e-03
  1.3437128e-03
 -2.8462166e-03
  9.0196467e-04
 -4.9589784e-04
 -6.1384577e-04
 -6.8091194e-04
  7.2979473e-04
  2.2879217e-03
 -1.8150413e-04
  4.3215150e-05
  6.6059694e-04
  1.6357659e-04
  2.3124993e-04
  1.1050592e-03
  2.8979679e-04
  4.0754382e-04
  1.4963285e-04
  1.3200270e-03
 -3.6504462e-03
 -2.4471895e-03
  8.3147595e-04
  1.1512814e-03
  2.7013637e-04
 -1.1487217e-03
 -1.1310026e-03
  8.3699813e-03
 -3.3983317e-05
 -1.1633444e-05
  3.4792512e-04
 -6.5005105e-04
 -2.6318248e-04
 -2.1262877e-03
  2.3730050e-03
 -3.5410593e-04
 -8.5556385e-04
  4.5847576e-04
  1.3667314e-03
  3.1841754e-03
 -1.0150993e-03
 -9.5233127e-06
  7.3221374e-05
 -1.6183998e-04
 -1.9647006e-04
 -1.4775173e-03
 -1.3961410e-04
  1.0090729e-03
 -1.7538002e-03
  2.2377582e-04
  4.8242690e-04
  8.6974259e-04
  1.2613417e-04
  1.2389796e-03
  4.9205474e-04
 -2.2487319e-03
  4.9473246e-04
 -3.8017328e-03
  2.4378612e-03
  2.8719832e-03
  6.4236496e-04
  7.2699040e-04
 -1.3679505e-03
 -5.2787794e-04
 -2.7021298e-03
 -1.7540016e-03
 -2.0747050e-03
 -3.5940092e-03
  2.3236806e-03
 -1.2653621e-03
 -6.7567633e-04
 -1.0303800e-04
  4.3587765e-04
 -1.3118320e-03
  9.7646692e-04
  3.3943290e-03
 -6.3092099e-04
 -5.9632497e-04
 -2.3033372e-03
 -2.7220547e-03
  3.8333576e-05
 -3.8868777e-04
  3.4909110e-04
 -4.0603555e-03
  8.6726272e-05
 -5.4943154e-04
 -1.8665841e-04
 -9.2509616e-04
  1.2588011e-03
 -5.0207245e-04
  3.3543717e-02
  1.0957654e-03
 -1.3975155e-03
  7.8501768e-02
 -1.7655031e-03
  2.7820078e-01
 -5.5967608e-05
 -1.5217115e-01
  4.1712362e-01
 -4.1208256e-04
  2.0510580e-02
  2.5012040e-01
  2.2937131e-01
  8.1589031e-01
  2.6719472e-01
 -4.8593152e-01
  1.0571339e-02
 -3.4932143e-03
  4.0846956e-01
  3.0107340e-02
 -2.7356578e-02
  6.4782407e-03
  8.3365035e-01
  4.1269935e-03
 -2.9561301e-03
  4.6890783e-01
  5.9759375e-02
  3.2196548e-02
 -2.6178686e-03
  5.2672317e-03
  2.1484043e-03
 -6.5655098e-04
  1.7526961e-03
  1.3399831e-03
 -6.7195022e-03
  1.4156548e-03
 -2.5028412e-03
 -5.9185311e-04
  2.7800631e-04
  2.1995653e-03
  1.2924449e-04
 -5.6488905e-04
 -1.1954859e+00
  5.6312780e-04
  1.9482627e-03
 -2.4605894e-03
 -1.5234649e-04
 -5.6655132e-03
 -2.2831720e-03
 -1.5870371e-03
 -2.6703458e-03
  2.6318128e-04
 -2.2183517e-03
  1.0381620e+00
 -5.7007425e-04
 -6.6169426e-02
  1.7060398e-03
  3.2031265e-04
 -8.0005407e-02
  1.1779346e-01
  1.4028151e-01
  2.0334475e+00
  6.8684489e-01
  3.1069183e-04
  2.7285248e-01
 -5.1556692e-02
  2.7025698e-03
  4.0147020e-04
 -7.7400624e-04
  1.0148630e-03
 -1.4624745e-03
  2.5356501e-02
  9.5759191e-05
  2.2781128e-01
 -1.2641701e-04
 -2.9204288e-04
  1.5767529e-03
 -7.9222307e-05
 -8.3038374e-04
 -4.6794959e-03
 -4.3735528e-01
 -1.1386474e+00
  2.3986595e-03
  1.3798554e-03
  1.3487943e-03
 -6.1806495e-04
  2.0262823e-04
 -3.3435793e-04
 -6.3419290e-04
 -3.0139616e+00
 -6.6220450e-01
 -7.8939676e-04
  1.1349836e-03
 -9.8790489e-02
  8.2510989e-04
  1.4276252e+00
  6.9164578e-04
 -1.4492547e-03
 -5.5849121e-04
 -4.2670767e-04
 -2.9857889e-01
  5.4571557e-01
 -1.9525706e-03
  1.7369118e+00
 -4.8047717e-04
 -2.5005679e+00
  2.0162559e-03
 -9.8355336e-04
 -1.4249132e+00
  1.3641858e+00
  1.5863132e+00
  2.7754748e+00
  2.0417099e+00
  6.4757387e-03
  4.6469588e+00
  1.5598415e+00
  1.3999090e-03
 -7.4081838e-01
 -4.9566828e-05
 -4.1863042e-01
 -6.3681747e-03
  1.3025266e+00
 -2.2643206e-03
  1.9378030e+00
 -5.6756842e-03
  1.0242442e-03
 -4.3420743e-02
 -1.4998011e-01
  1.4861697e+00
 -1.3430330e-01
 -1.3387194e+00
 -3.7996092e+00
  1.1779395e-03
 -3.7218074e-04
 -1.7912025e+00
  2.4065671e-03
 -3.9458910e-01
  2.6033579e-03
 -2.6427000e-04
 -4.2750192e+00
 -2.0423141e+00
 -3.6779465e-04
  1.1494153e-03
 -1.1770772e+00
 -3.9449797e-04
  1.9775364e+00
 -2.3642938e-01
 -7.3648162e-02
  1.6867327e-04
 -6.7326427e-04
 -2.9227155e-01
  2.1395011e+00
 -2.1918712e-03
  2.3242061e-03
 -4.0986747e-03
  3.1513702e-02
  2.5125397e-03
  7.4204928e-03
 -1.2193157e-02
 -2.8438373e-02
 -1.0876900e-01
 -2.7500214e-02
  4.0405202e-03
 -2.3227105e-02
 -3.9630081e-03
 -1.5765918e-02
 -4.5571756e-02
  1.4662427e-02
 -1.6494356e-02
  1.4098267e-02
 -8.5361097e-03
 -1.9436583e-01
 -3.9615938e-03
  5.6614615e-03
  5.1936542e-04
  1.6074104e-03
 -2.2706108e-02
  9.3550924e-03
  8.6236083e-05
 -1.0179789e-02
  3.5327690e-04
 -6.1205709e-03
 -9.4322290e-04
 -1.1867448e-02
  1.2481486e-05
  4.9108076e-03
 -1.6614899e-02
 -2.6546231e-02
  1.3445046e-02
  6.5894336e-03
 -4.2248573e-04
  5.3257644e-03
  5.1063676e-03
  9.0346783e-03
 -1.5791406e-01
 -7.5869993e-03
  3.9629340e-03
 -1.8817508e-01
 -3.9880108e-03
  1.6012818e-02
 -5.3758323e-03
  7.6434105e-03
  4.7346181e-03
 -9.5899794e-03
 -3.7771037e-03
  2.1842277e-02
  3.4908526e-02
  1.8197631e-02
 -1.0238909e-02
 -4.4283667e-03
 -5.0987612e-02
 -4.6925796e-03
  8.7624807e-03
 -1.7119359e-03
  2.3778442e-02
 -3.5553479e-03
 -9.8684628e-04
  4.5054391e-01
 -2.5904190e-02
  1.4689727e-02
 -3.6018185e-04
  7.7185082e-01
  1.8097892e-02
 -9.6755372e-03
 -7.5109378e-03
  1.9609102e-03
 -8.8305557e-03
 -1.0103236e-01
 -2.7294716e-02
 -1.4128066e-02
 -9.0333998e-01
  4.0433221e-02
  4.2862496e-03
 -2.8506456e-02
 -2.5532299e-01
 -5.6040603e-01
  5.8058752e-03
  1.1069228e-01
 -5.0033510e-01
 -3.0029933e-05
 -2.1951258e+00
 -1.3736200e-02
  2.1573010e-01
 -1.0869961e-01
 -2.3225363e-02
 -4.1781572e-01
 -3.3363086e-01
  5.6454479e-03
 -2.1291221e-03
 -3.4650456e-02
 -5.2026995e-02
 -4.7399941e-01
 -4.8145386e-03
  2.2361850e-02
  1.4207163e-02
 -2.6189339e-01
 -6.5935124e-04
 -3.3193503e-03
  1.5391830e-01
  2.0443001e-01
  1.0718845e-01
  4.8555583e-03
 -7.0081592e-02
  3.5779104e-01
 -3.7420347e-02
  1.0006990e-01
  2.6974032e-02
 -4.4017070e-04
  6.2817093e-03
  1.7494701e-02
  1.7408684e-01
  3.8717512e-02
 -3.2523936e-01
  6.8088055e-02
 -4.1239625e-03
  4.7701526e-02
  5.0429672e-02
 -3.1885460e-02
  4.9154859e-02
 -9.0001716e-04
  5.7671953e-04
 -7.1686856e-04
  1.0707827e-03
 -1.0363763e-01
  2.5577815e-03
 -1.0143003e-01
 -1.5649937e+00
 -1.3300496e-03
 -3.0085966e-01
  1.6158311e-02
 -3.4696504e-02
 -2.0348579e-03
  6.6004843e-03
  2.9520344e-03
 -2.7590749e-04
  7.3119509e-03
  2.1834599e-03
  1.9804247e-02
 -1.5573264e-03
 -1.8984575e-02
  2.8455764e-02
  1.1675883e-02
  1.0344315e-02
  2.7053616e+00
  6.7781640e-04
  6.9132632e-01
  3.0620676e-01
 -1.5336364e-03
 -3.6438812e-02
 -8.1767011e-01
 -6.4196950e-01
  1.4584554e+00
  1.2004375e-01
 -6.8792790e-01
 -7.1102334e-03
 -3.9707401e-01
 -1.2191234e-01
  7.9931366e-01
 -3.8662046e-01
 -6.6304160e-03
 -3.0491138e-01
 -4.4860572e-01
  7.3922437e-01
 -1.2277626e+00
 -2.2795695e-01
  7.0153013e-02
  6.4015843e-02
  5.5386417e-02
  5.3455518e-03
  8.4479444e-02
 -7.2667524e-03
  3.3602950e-03
 -4.8525087e-03
 -8.3724633e-03
 -3.6878614e-03
 -2.0110623e-04
 -4.5460248e-03
  9.1803847e-03
 -4.1581718e-03
  9.0751750e-04
 -7.0536560e-03
 -7.5703445e-03
  4.9735177e-03
 -7.3703164e-03
 -4.0890145e-04
 -2.9211210e-02
  1.7049579e-02
 -9.3298005e-03
  7.6596900e-03
 -9.2963465e-03
 -6.3368049e-04
  4.1985665e-03
 -2.0857086e-02
  1.3703108e-03
  1.5181598e-03
 -3.6011031e-01
 -4.2226244e-02
  2.0861486e-03
  1.7693029e-01
  2.5913742e-01
  2.8454059e-01
  3.5994078e-03
 -2.5759362e-02
  3.3785802e-01
 -1.1746915e-02
  2.8908703e-01
  4.7005233e-03
 -9.3168244e-03
  1.1751040e-01
  1.0752190e-02
  2.5551885e-02
  6.5967272e-04
 -3.7515679e-01
  1.9802421e-02
 -1.5024793e+00
  2.2403326e-02
  2.4223568e-01
 -2.0607424e-01
 -1.0421714e+00
 -9.7235125e-03
 -7.8214705e-03
  9.9996823e-01
  3.0766051e-02
 -2.6883030e-01
 -3.8975783e-02
 -8.1593143e-03
 -1.9513516e-02
  2.0511104e-02
 -4.8575419e-01
  1.2750597e+00
 -5.6227162e-02
 -1.9103208e-01
  9.4291223e-03
 -3.8204752e-02
  7.6982980e-03
 -1.1039560e-01
 -2.0912792e-01
 -2.1494610e+00
 -1.0898968e-02
 -2.6407924e-03
 -1.2236477e-02
 -2.6708820e-01
 -3.3992648e-03
  1.3888910e-03
 -3.9206226e-03
 -8.6039782e-02
 -2.5090878e-03
 -2.4541419e-03
  4.5390509e-02
  4.9512915e-02
  1.3802800e-01
  4.4199033e-03
 -2.4020769e-02
  1.0729378e-01
  4.8597401e-04
  1.4156568e-02
  6.7224137e-02
  4.0651029e-03
  1.7076507e-01
 -2.1579643e-03
  2.2374181e-02
  1.6164479e-01
 -1.6245705e-03
 -5.1416480e-04
 -4.7199172e-04
  1.4361867e-02
  1.3917988e-02
  4.2083538e-03
 -5.0336623e-01
 -1.6023386e-01
  3.0454064e-02
  3.9025579e-02
 -7.2911833e-03
 -2.3197281e-01
 -6.1322644e-02
 -8.3625177e-03
  2.1849119e-03
  4.3483539e-03
 -5.0053394e-01
  1.3945956e-02
 -8.4196073e-01
 -2.7489844e-01
  3.3715345e-02
 -2.1717891e-01
 -5.5189678e-03
 -1.4669277e-01
 -5.3277707e-01
  2.1233063e-02
 -2.8945631e-01
 -4.0177312e-03
 -2.1810038e-02
  4.5486021e-01
  6.0881726e-03
  1.8223373e-02
  1.1953120e-04
 -2.8793123e-01
  2.0051403e-03
 -7.6450623e-04
  1.1975043e-02
 -8.5151810e-03
  2.4419911e-01
 -2.1780545e-03
 -1.1905956e-01
  2.2661762e-01
 -4.5956719e-01
  1.4210171e-01
  6.6153303e-02
 -2.8619314e-02
  5.1904838e-03
  1.6889097e-02
 -6.9479010e-04
  3.0351123e-01
 -1.2190619e-03
  2.0351131e-03
  1.7677842e-02
 -1.1086316e-03
  1.8630470e-01
  4.0784185e-03
  1.1035514e-02
 -3.9352067e-03
 -1.0527430e-02
 -5.7807602e-03
 -2.2523496e-03
  1.9136915e-02
  2.3339769e-02
  1.0383213e-01
  4.3274136e-03
 -3.4744013e-02
  4.1083628e-01
 -4.3351362e-03
  1.2993715e-02
  4.6735756e-02
 -1.1687580e-02
 -2.5828211e-03
  1.2763393e-02
  2.3053407e-03
  9.8803185e-02
  2.0702749e-02
  6.9067515e-03
 -5.2223857e-03
 -6.2357590e-02
  4.3441858e-02
 -2.8524334e-02
 -8.0108482e-01
  2.1930237e-03
  2.6078101e-03
  2.9150802e-01
  7.1099708e-03
  1.3626962e+00
 -2.8468326e-03
 -3.8506281e-01
 -6.4956699e-03
 -1.5748866e-01
  5.3195316e-01
  1.1759304e-01
 -9.1198711e-03
  1.3557049e+00
 -2.4066721e-03
  3.5579699e-01
 -9.6747816e-02
  6.6768760e-03
  6.1969763e-01
 -3.5611621e-01
  1.5779287e+00
 -5.2042147e-03
  4.1470677e-03
  3.5857356e-03
 -4.3918535e-01
  7.7636696e-02
  1.1035255e-01
 -1.5708061e-02
 -7.0947031e-03
 -1.1888144e-02
  4.6284329e-03
 -4.4117231e-04
  4.2279256e-03
 -6.4114796e-04
 -3.0579176e-02
 -3.5761118e-02
  1.0981170e-03
  1.0452623e-02
 -1.2282698e-02
 -1.3445632e-02
 -8.7273249e-04
  4.6495870e-03
  4.5290758e-04
  5.4636564e-02
  1.5208291e-02
  1.5764749e-03
  1.4487562e-02
  5.8790445e-03
  1.5089953e-02
  3.4569900e-03
  1.7772896e-02
 -3.3744194e-03
 -6.5096966e-03
 -1.7755060e-02
  6.9550129e-05
  8.0610421e-03
  5.6729740e-03
  2.2221988e-02
  4.5443680e-02
  1.1739937e-02
  1.6602864e-02
  9.8206801e-04
  5.7908138e-03
 -8.1050079e-03
  1.1621683e-04
 -6.2503712e-03
 -2.0460067e-02
 -1.4051176e-02
  1.8249386e-03
  2.4330722e-02
  1.3067573e-02
  1.2278976e-02
  2.6910140e-03
 -1.4319946e-03
  1.6989874e-02
 -8.7201698e-03
 -6.2461186e-04
  3.6023424e-03
 -7.1833275e-02
 -2.7376996e-02
 -3.2593131e-03
  3.5981326e-03
  1.5551178e-01
 -3.5466740e-03
  1.4109650e-02
  3.5461336e-02
 -6.2643257e-03
 -2.5550746e-03
  1.6884040e-02
  9.3940357e-03
  4.5666001e-03
 -7.9065817e-04
  6.8973149e-03
  6.9042470e-04
 -2.2116187e-03
  1.1892559e-03
 -6.7837107e-01
 -2.1615629e-03
  3.4790859e-03
 -1.2377487e-01
 -4.6733162e-01
 -1.0678486e-02
 -1.7782372e+00
  1.4761646e+00
 -6.2903231e-03
 -1.0275338e+00
  9.6946788e-01
  2.2537590e-03
  4.6795911e-01
 -9.5985115e-02
 -5.8752424e-01
 -8.6775862e-02
 -6.0954839e-03
 -4.6845414e-02
 -2.0017831e-02
 -5.9745568e-01
 -1.5242000e-01
  3.6444586e-02
 -7.9612076e-01
 -1.0663750e+00
 -2.2214514e-01
  3.3580236e-02
  2.3826921e-02
 -1.0176415e+00
 -9.2800295e-01
 -3.1713028e-02
 -1.1449755e-02
  3.3821046e-01
  4.3298537e-03
  2.2074741e-03
 -6.8961903e-02
 -2.5121495e-01
 -1.9598943e-01
 -4.6205811e-02
  6.8618901e-02
 -2.8299817e-01
  2.9837534e-02
 -1.3886406e-01
 -4.8434451e-02
  1.5959527e-02
 -2.4194384e-01
  2.4083611e-02
 -9.8267220e-02
 -1.5267865e-01
  2.9297700e-02
 -9.5067002e-02
  8.0500189e-03
  6.1496585e-03
 -2.8576378e-02
  2.6996547e-02
  6.8143578e-03
 -2.7507273e-03
  1.2200165e-03
 -1.0423549e-02
 -2.3704948e-02
  2.7544899e-02
  7.0411628e-01
  2.7176328e-03
  1.7652124e-02
 -1.9942792e-02
  1.7206204e-03
 -1.0945791e-03
 -5.3397650e-03
  1.7702276e-02
  4.4348600e-04
 -1.6734220e-02
  2.3129081e-02
 -2.3983493e-02
  6.3124881e-03
  1.1105260e-03
 -2.1483187e-02
  2.3833523e-02
 -3.1177288e-02
  5.5582747e-03
 -1.9073758e-03
 -5.3165741e-03
 -8.4308228e-03
  2.8588051e-01
  2.2377180e-02
 -2.6350806e-03
 -7.6802403e-02
 -3.0291948e-02
 -1.9185232e-02
 -6.0294797e-03
 -1.1133023e-02
 -1.6957091e-01
  4.0422166e-03
 -8.6150113e-03
 -5.8546304e-03
 -6.7491800e-02
 -3.9595542e-03
  7.5014244e-04
 -1.3916273e-01
 -2.1356797e-01
  4.0614411e-02
  4.0630950e-03
 -8.6431308e-03
 -2.8134363e-03
 -3.3913366e-02
  6.5398416e-03
  8.0286965e-02
  8.4466970e-01
  2.5461117e-02
  1.0429773e-02
  1.9729070e-03
 -1.8238416e-01
 -1.5644316e-02
 -3.9630543e-02
  2.3789022e-03
  1.9848909e-02
 -2.0471646e-01
  6.8213232e-03
  1.4942749e-03
 -1.9055299e-02
  1.0997604e-02
 -4.6578914e-02
 -5.9616459e-03
 -3.2989420e-02
 -5.7142336e-02
  3.1038108e-01
 -3.9735571e-02
 -1.0020824e-02
 -1.0800563e-02
 -3.7459943e-02
  1.3251290e-02
 -2.7831690e-02
 -1.2914837e-02
  1.0033654e-03
 -6.4572985e-03
  5.2117547e-03
 -4.5263428e-02
 -4.0357549e-02
 -2.2339635e-02
 -1.3239754e-03
 -1.9331005e-03
  7.9531586e-03
  9.0665976e-03
 -7.5431326e-03
  2.3613833e-03
 -4.1834740e-03
  7.8414287e-03
 -1.4157726e-03
 -1.8207677e-02
 -2.0373281e-02
 -2.0892783e-03
 -2.6308125e-02
 -2.9507680e-03
 -1.9638335e-04
 -9.0353657e-04
 -4.0268108e-02
  3.2042038e-02
  2.5125097e-02
 -2.3754618e-01
 -9.1977222e-03
  8.6161908e-04
  8.3361432e-02
  4.7291700e-02
 -5.2937526e-01
  2.9177528e-03
 -2.1435084e-02
  7.2354473e-02
 -1.0668926e-02
  9.0659827e-02
  4.2226743e-02
 -1.7002914e-02
  7.6431185e-02
 -3.7008893e-02
  2.1140139e+00
  2.1152987e-01
  1.4547228e-03
  7.4284109e-03
 -1.7058858e-01
 -4.7251620e-04
  1.3789949e-01
 -6.0555837e-03
 -3.7569224e-03
 -2.4871489e-02
  2.6795520e-02
 -1.0157848e-03
  1.7812908e-02
  1.8837430e-03
 -1.0249994e-02
 -6.3997507e-03
  9.2182523e-03
  2.1528131e-03
 -2.4934955e-02
 -9.3736658e-03
  2.2696193e-04
  6.1342847e-03
 -1.4388667e-02
  6.3627847e-03
  2.6221376e-02
  5.5286046e-03
 -5.4554031e-03
  1.1187418e-02
  9.0910662e-03
 -1.1304658e-03
  2.7479164e-03
 -3.4598194e-03
  5.0896457e-03
 -4.5239675e-01
  4.5809555e-03
  4.4024181e-01
  5.3720581e-03
  9.1935517e-03
 -2.5340781e-01
 -3.9952850e-01
 -2.4078704e-01
 -4.9164057e-01
  2.6320329e-01
 -4.4129357e-01
  1.2575971e-02
 -3.7910268e-01
 -1.6357820e-02
  2.6432244e-02
 -3.7267644e-02
 -4.9309633e-03
 -5.3810656e-01
 -2.7131027e-01
  2.7949670e-01
 -3.4514729e-02
 -1.9437337e-02
 -1.4684243e-02
 -1.6732806e-01
  1.8451190e-01
  3.8516377e-03
 -6.8771248e-03
 -8.7390048e-03
  3.4504939e-02
  2.4484661e-03
  1.5371545e-02
  4.4690236e-03
  3.2400389e-04
  1.8254051e-02
  1.0576522e-02
  8.2902730e-02
 -2.1153597e-02
 -1.0026256e-02
 -2.9613033e-02
  1.6349608e-03
  4.5883246e-03
  8.6432584e-03
  4.1808154e-02
  2.8834383e-03
  5.5412231e-03
 -1.3267660e-03
 -1.7282132e-03
 -1.3032606e-02
  2.9955548e-03
  8.9259632e-03
  3.9444953e-02
 -8.3628064e-03
  1.0626754e+00
  1.6664274e-02
  2.7729880e-02
  4.2059931e-01
 -8.8414526e-01
 -5.3676271e-01
 -1.8501860e-01
  2.7532688e-01
 -5.4763150e-01
  2.0667315e-02
 -6.1874092e-01
 -6.3015467e-01
  6.9617713e-03
 -2.2220372e-01
 -1.4006334e-02
 -3.6302683e-01
 -3.3941549e-01
  6.3155800e-01
 -9.1270171e-03
 -4.0260177e-02
 -2.2722004e-02
 -3.1534526e-01
  6.3747138e-01
 -1.1016947e-03
  4.8999004e-03
  5.4262895e-02
  6.1756130e-03
 -1.6178051e-02
 -2.6857547e-02
  1.2008921e-03
 -1.3502326e-02
 -4.5524929e-03
 -5.4284833e-02
  5.7925712e-03
  1.3520926e-01
  1.1646526e-02
 -2.5041554e-02
  9.6687773e-04
  1.6671084e-02
  5.0442223e-03
 -6.5594180e-03
 -5.3927243e-01
  2.9183896e-03
 -8.0621149e-03
 -5.1494058e-02
 -6.6614100e-03
 -3.2102395e-02
 -1.0762682e-02
 -6.7472882e-03
 -6.6500003e-03
  1.6399192e-02
  1.6111776e-02
 -1.1867802e-02
  1.2996485e-02
  6.2558301e-02
 -2.7899630e-03
  2.7577260e-03
  5.7394481e-03
 -6.5705185e-03
  6.7428527e-03
 -1.5676225e-03
 -1.9451540e-02
  2.8441653e-03
 -9.3944445e-03
 -3.4391577e-03
 -5.3191087e-03
 -4.7970299e-02
 -3.7353829e-04
 -2.7602590e-03
 -1.1718065e-02
 -3.9528113e-02
  3.2882479e-03
  4.0263463e-02
 -4.5413420e-02
 -1.9834526e-03
  4.2591985e-02
  9.8181572e-03
  2.8223542e-03
 -4.8775937e-02
 -3.6056917e-02
 -3.2010779e-02
  6.0217353e-03
  4.3579196e-03
 -1.7793702e-02
 -5.0693244e-04
 -1.4509072e-02
 -4.0875100e-02
 -1.9609593e-03
  2.3098418e-04
  4.8136536e-02
 -1.0882061e-02
 -3.7301710e-01
  5.5103051e-03
 -4.6237458e-02
 -2.1219838e-02
 -2.7949953e-02
 -2.4976909e-02
  1.8287942e-02
  6.4438063e-01
 -4.9457077e-02
  2.1564451e-03
  3.9080372e-03
 -3.0334904e-03
  6.6498253e-03
 -2.6310189e-03
  4.1668992e-03
  3.4994306e-03
 -2.9716186e-02
  3.0181187e-04
 -1.1814594e-03
  1.7712735e-02
 -5.1514390e-03
  2.0977946e-03
  9.3528675e-03
  9.7069237e-03
  2.5751553e-02
  3.1058935e-02
  1.5090515e-02
 -1.1247528e-02
  1.4350380e-02
 -7.2074379e-03
  7.6154087e-05
 -1.2497393e-02
 -5.8683597e-02
 -5.6581176e-04
  2.8499631e-02
  2.4045980e-02
  3.1939207e-03
 -1.3348629e-01
 -8.3635515e-03
 -1.2554862e-02
 -1.8670561e-02
  1.5755657e-02
 -1.6101789e-01
  2.0255279e-02
 -1.3251124e-01
 -2.5061181e-02
  9.0507226e-04
  9.7074267e-03
 -1.0691579e-04
  4.9352607e-01
 -3.0146819e-03
